#include "model.h"
#include "config.h"

/*
const DTYPE fc1_weight[FC1_OUTPUT_SIZE][FC1_INPUT_SIZE] = {};
const DTYPE fc2_weight[FC2_OUTPUT_SIZE][FC2_INPUT_SIZE] = {};
const DTYPE fc3_weight[FC3_OUTPUT_SIZE][FC3_INPUT_SIZE] = {};

const int fc1_sum[FC1_OUTPUT_SIZE] = {};
const int fc2_sum[FC2_OUTPUT_SIZE] = {};
const int fc3_sum[FC3_OUTPUT_SIZE] = {};

const float fc1_scale[FC1_OUTPUT_SIZE] = {};
const float fc2_scale[FC2_OUTPUT_SIZE] = {};
const float fc3_scale[FC3_OUTPUT_SIZE] = {};
*/

const DTYPE fc1_weight[FC1_OUTPUT_SIZE][FC1_INPUT_SIZE] = {22,33,-20,-77,-36,-127,-34,-49,-26,-1,-32,-62,1,61,75,115,1,8,15,-68,-105,-32,-45,-102,22,47,-39,21,-29,-103,-9,-14,-50,-57,-33,-13,-76,33,60,1,-50,10,20,59,-77,18,63,-23,-12,91,-51,-7,-28,95,32,82,-23,41,-14,31,29,65,-15,9,31,-47,-57,-95,-32,32,-11,-28,27,-83,-51,18,-30,-40,31,-47,66,-17,-29,-64,116,64,20,7,18,5,107,-57,-2,4,87,-74,26,-40,0,5,22,34,19,33,29,28,36,-11,-41,41,-5,-13,24,-17,6,7,24,2,-5,34,11,13,-13,29,21,6,19,-12,-4,4,-42,-1,-16,33,65,28,7,-10,43,25,-25,-9,-24,8,-17,-71,-17,27,22,-12,1,63,-18,26,34,-11,37,-45,-26,40,28,-25,-27,-38,24,-6,35,21,-9,-1,-24,30,-14,-2,48,-22,-41,66,44,-2,-3,11,21,33,-43,-27,13,-28,0,-19,-47,16,39,-20,-67,12,-45,7,30,-128,28,58,-1,-72,-7,-128,-10,-51,-24,8,-26,-65,-8,69,44,103,13,-16,23,-35,-94,-37,8,-100,43,26,-29,-21,-31,-90,-16,1,-43,-33,-28,-10,-75,36,49,-1,-34,-4,-26,53,-70,16,50,0,-12,68,-43,-5,-1,112,37,86,7,34,-18,38,26,41,-51,-1,26,-45,-47,-59,-22,10,-17,-6,16,-58,-58,-12,-49,-41,43,-39,55,-11,-25,-59,116,92,31,-19,2,-4,58,-31,1,16,110,-44,-24,0,14,-21,28,21,-67,-81,-52,-116,-89,-27,-1,-31,-50,-77,-6,42,53,87,-7,-4,17,-86,-126,-37,-8,-98,26,19,-24,14,-43,-81,33,-26,1,-92,-60,-27,-57,53,53,-43,-39,12,33,17,-31,37,61,-48,-24,95,-48,-39,-15,56,8,79,-43,54,2,-10,37,81,-5,20,35,-26,-83,-88,-45,14,-13,-43,24,-85,-71,19,15,-59,-5,-36,64,-1,-38,-75,127,70,15,21,26,-7,127,-62,0,23,87,-67,75,-53,8,40,-34,-24,92,-8,19,-51,92,9,1,27,-15,34,-27,55,-1,15,5,3,-35,-1,66,-36,-29,-66,-11,-3,-68,33,82,-37,35,34,-77,27,-16,-15,-34,-63,-60,28,61,-16,-34,86,-39,101,7,2,-64,19,-8,-53,-1,-2,-3,21,3,94,-11,3,-40,-11,-25,48,-46,-54,23,-23,74,36,-10,-37,40,7,-71,22,-28,-100,-12,9,25,-55,-7,-30,-3,94,-34,17,-6,78,11,-1,-33,45,73,-17,-10,15,-120,127,30,-23,-92,-1,31,39,-100,17,24,-42,24,-33,13,-13,-69,-57,-15,-40,46,17,-65,21,122,28,24,-32,90,-116,-66,88,-1,-41,127,-14,-19,33,41,76,-31,-57,-8,-2,-26,-117,28,-56,-56,22,70,-54,21,32,80,-53,11,-38,2,-57,17,-33,17,6,-32,6,10,69,-42,99,-67,-90,7,42,-74,47,26,-36,55,44,9,0,-57,60,-12,37,7,-23,-4,-11,18,-73,-62,55,-10,11,-29,71,7,28,65,-8,22,-52,-31,-18,-43,-39,-70,27,-15,19,10,-4,84,29,23,-3,-5,28,-3,-50,-57,25,-80,-67,-63,30,40,29,18,-33,-25,-34,5,-53,2,34,-48,-6,-21,-28,-29,-18,3,-28,-90,-34,0,-10,32,27,-52,66,12,-45,56,-5,-95,40,-10,19,46,90,-15,52,18,-43,-38,-25,-42,-2,-89,-62,-23,-52,-27,35,-10,21,47,-73,29,-30,-9,45,14,116,-55,3,77,2,62,-5,-29,2,5,-26,117,-128,-81,97,4,-15,31,-29,45,-4,57,-16,-41,76,66,56,76,67,23,4,-20,-1,47,37,7,-9,-44,-2,-60,67,26,-76,21,52,-96,-36,-51,45,42,89,-18,9,-36,54,-43,1,-13,-23,-128,-18,-43,88,52,-33,-5,61,74,54,67,-9,-2,-26,-23,81,0,16,-48,-42,-2,15,11,45,8,-22,-40,15,-76,-11,28,-46,-56,63,75,-34,-18,-2,-8,76,8,12,-26,-72,12,26,-39,49,-40,-61,70,36,-91,19,-38,6,-10,-26,77,-6,-12,-38,47,32,-32,64,-18,20,56,38,31,29,32,28,-17,-32,32,3,-102,-80,-55,24,0,39,64,-66,5,22,-69,-6,33,48,-49,-75,-22,30,-18,-3,-26,33,-87,1,8,5,-11,50,-81,24,-46,4,44,11,-66,68,-10,57,40,29,-10,15,13,-45,2,-51,10,49,-94,-83,-9,-62,-42,17,-68,-3,31,-50,59,-47,20,27,-21,127,-46,2,48,44,46,-4,-7,9,54,-52,50,-76,-109,61,14,23,59,-22,28,-18,13,21,-17,46,-38,-62,29,29,-3,64,60,-9,40,-41,5,5,-5,-88,-16,14,68,-107,-33,-23,33,31,6,-30,46,92,-15,-14,25,-10,-76,11,-68,-31,-30,-26,8,8,14,48,-127,28,-35,47,53,7,-33,15,23,66,107,2,-28,-46,74,18,-50,-1,-55,45,-79,-70,-80,-101,-39,-41,-79,53,35,-57,65,20,40,2,-16,127,-35,7,56,-43,9,20,32,21,47,-27,39,-6,-41,-60,9,17,46,-26,20,-56,11,6,-17,29,-15,-39,11,53,-3,42,26,-14,28,-29,-16,-12,-4,-80,-1,8,16,-56,1,-42,15,11,-13,-21,12,44,-37,-11,2,0,-24,-3,-55,-5,-47,-4,10,10,-1,44,-67,10,-7,41,40,25,-17,32,7,40,61,20,-40,-1,35,-16,-38,-13,-22,16,-56,-48,-31,-49,-53,-18,-55,-4,26,-40,47,-1,9,-6,21,127,-25,-1,28,-17,16,11,1,28,68,-20,21,-13,-48,7,27,33,-23,-91,2,-96,-25,-44,-25,28,19,-38,37,86,41,85,-10,-13,54,-27,-90,-24,2,-80,0,54,11,-83,-46,-17,-48,-29,-19,-31,-18,48,-52,50,18,9,-69,12,-3,-14,-103,9,23,32,29,28,-52,17,43,106,57,52,-20,5,-8,57,37,57,-41,-34,28,7,-69,-22,-30,-18,-24,-10,-52,-74,-24,-34,-45,4,54,-54,27,11,-27,-8,113,59,7,-40,13,-10,37,-6,-20,-17,127,-20,-37,-1,6,-4,-1,-47,-72,-61,-33,-25,-82,2,15,-15,45,20,48,38,12,-19,-49,11,26,-22,-57,2,-14,-11,-49,32,18,-24,-11,31,-32,-54,31,-39,-49,18,-13,55,-47,-24,-20,1,37,-53,-54,25,-9,0,41,-13,7,3,71,-29,18,0,-64,13,8,-21,-6,76,5,31,-13,11,-48,5,-21,-41,-18,-21,-34,-14,-5,8,49,-3,6,-32,-23,-1,-33,29,65,16,-28,-12,32,13,43,1,-58,-16,56,13,41,-47,-30,127,-18,4,97,61,36,29,62,54,20,1,-61,-22,-53,-21,-64,-8,63,-17,-6,-10,102,-3,49,-54,16,-64,27,-36,30,-30,107,73,24,9,24,22,4,-67,-28,-15,36,7,-93,-8,70,23,-9,-16,-55,40,-74,-35,-65,-36,-18,-22,5,38,47,8,52,-71,-7,-1,24,13,4,20,-2,49,-41,-68,-5,-6,-66,-13,-37,-17,-35,-1,48,3,46,-7,-86,127,-37,51,17,-19,-38,18,30,72,13,-4,43,26,-66,0,29,26,0,43,-1,33,-14,19,-21,9,-41,-50,27,-43,5,16,43,3,-6,-28,-3,41,-21,2,10,-19,48,-6,-41,-6,2,17,22,-17,50,34,14,-11,66,-18,-55,7,-23,-35,10,-99,-7,-14,25,13,-48,56,-57,-5,28,-17,-13,-30,1,23,82,-22,6,-18,56,4,-13,3,-58,27,-32,-9,-31,-47,27,-1,-40,74,22,-29,26,17,41,14,-51,20,0,17,38,-52,-8,-4,57,5,-102,-22,53,-39,34,-128,-26,8,-22,-50,-11,-11,-24,-20,57,-66,-16,-13,-101,-1,-34,10,-26,-27,18,-19,-5,-48,95,-4,42,-36,-38,-30,-30,9,88,4,29,-24,-83,-56,20,46,-10,-36,33,22,34,4,90,100,38,-28,-50,20,20,-128,5,13,-75,28,20,15,43,-51,-40,-11,34,-9,-26,51,-28,-9,29,-1,85,12,32,23,-48,-1,58,-92,-77,40,-7,26,-32,-80,64,-40,25,38,-49,1,22,-34,-17,34,75,9,-23,85,32,65,-64,-18,89,38,7,29,80,31,46,-15,-42,33,-85,-27,-30,-35,20,7,-41,7,127,-30,-9,3,0,-48,-66,86,81,-28,101,77,-34,23,-25,-58,15,-89,-37,11,69,3,-7,66,88,92,15,-41,-95,15,3,-95,-70,-45,-75,-18,3,72,35,-23,-46,-64,43,31,-47,-14,42,-31,71,64,26,-42,70,34,-63,43,7,-99,-77,44,19,-39,23,-48,-63,38,-17,58,-39,57,9,-17,0,55,15,-27,28,36,-83,86,25,52,42,-59,35,-89,25,-28,-23,41,-17,-65,-3,73,6,93,31,-31,52,-26,-44,-35,28,-98,29,25,18,-107,-36,-47,2,22,-25,-17,4,58,-53,17,26,2,-57,13,-70,5,-67,16,23,30,4,57,-84,-4,-3,111,43,55,7,24,11,68,71,12,-61,-39,55,10,-50,-15,-29,13,-44,-24,-46,-76,-60,-52,-78,-8,42,-45,52,18,2,-27,65,124,6,-18,12,-26,9,11,6,14,127,-23,-35,41,-8,-39,-9,14,38,-35,52,7,76,-23,-27,57,58,41,27,55,25,10,-20,1,49,44,28,-14,-3,19,-30,53,10,-91,5,65,-60,-8,-44,51,30,71,7,4,-21,56,-35,18,-8,-7,-70,18,-21,80,30,-48,6,18,51,68,34,-8,23,-38,-1,65,-7,-18,-25,-73,-13,48,2,34,30,-17,9,22,-57,-16,36,-53,-40,37,30,0,-23,14,-4,40,11,-49,-1,-55,-21,17,-46,40,-19,-56,76,33,-127,76,1,-32,-43,-1,103,48,8,36,113,20,11,15,-27,41,-44,-22,-7,-14,21,18,-33,18,127,-14,-43,16,-5,-26,-51,71,68,-21,52,61,-58,46,29,-13,17,-92,-3,34,44,3,-16,78,36,42,6,-5,-64,5,-10,-43,-68,-19,-42,-15,18,40,8,10,-22,-62,29,-4,-24,-12,59,-29,62,53,16,-24,37,12,-18,16,-25,-37,-38,35,19,-27,32,-7,-84,8,-13,30,-23,49,-20,-3,11,11,-17,-17,-18,25,-64,2,31,-22,6,20,-23,14,-16,24,-54,48,-3,-9,97,-2,49,17,24,40,-17,-37,-12,40,-127,-26,-57,40,37,57,13,-30,-52,-8,-32,-18,72,52,-28,-36,35,7,-61,-7,6,-12,-75,-98,-3,-2,27,30,-57,97,-54,-8,67,-15,-57,-1,-26,48,55,45,2,9,43,-40,3,-35,-45,33,-101,-47,-30,-75,37,24,-50,86,57,-62,39,-24,32,68,-44,50,-33,0,75,-1,40,-5,22,-30,-68,-42,88,-125,-44,-42,23,9,18,3,29,-38,-24,24,7,-10,-35,-60,-12,18,-55,11,40,-36,17,-29,-22,-3,71,-79,32,-37,50,-81,-18,-32,47,23,55,-25,-12,28,-17,9,-15,-39,-2,-8,-76,-39,6,-8,-6,-10,0,39,-55,0,12,-1,20,15,-3,20,22,9,64,3,-47,13,41,6,-41,27,-42,-2,-52,-37,-33,-12,-60,-27,-28,-9,13,-27,26,14,14,-15,4,127,-24,18,25,-51,-17,27,9,58,35,6,46,8,-16,4,19,-38,-81,-98,-74,-56,-102,-11,-9,5,25,-17,81,58,91,58,-43,50,27,-85,-102,7,-102,-63,-66,75,6,37,-31,-16,-38,-58,-21,-71,-29,29,-45,36,23,-10,-69,24,84,-19,-103,5,30,-14,34,39,-48,12,7,23,38,20,-94,23,0,21,26,118,33,6,18,-17,-74,-78,-33,17,-41,-62,-18,-115,-5,30,13,12,11,-67,43,-24,-30,10,91,24,-19,-1,60,15,127,-51,-43,-49,64,-59,89,-112,-31,83,58,61,-23,13,16,-32,-60,4,-25,1,-62,-99,29,-24,-18,48,61,-23,12,-39,-81,25,36,-71,48,-24,64,-47,-60,-52,0,5,36,-49,32,26,-27,26,68,-48,-52,-14,-71,-44,2,-109,2,-20,26,45,-59,65,-33,30,47,27,1,-14,-5,29,103,15,-52,-6,75,-25,-40,9,-94,0,-74,-1,-17,-52,-6,-12,-52,51,41,-53,44,41,22,-6,-4,91,6,14,41,-90,-3,0,70,37,-58,-19,62,-45,52,-128,0,45,16,10,20,-25,-9,7,43,-60,-75,-75,-115,-29,-69,32,42,-52,-3,-28,6,-26,127,-44,85,-72,0,-50,-35,-41,110,57,62,-33,-46,-45,6,12,23,-51,39,9,-55,5,115,48,29,-41,-61,43,-28,-90,-38,7,-58,25,46,22,45,-40,25,-55,-3,5,27,22,-37,0,-22,18,39,-15,41,15,-73,-15,12,-69,-62,29,28,34,3,-92,6,52,27,61,-24,-56,-7,-16,38,88,14,-1,22,68,38,-32,-36,-89,-48,-7,-18,106,-72,59,21,-8,36,50,75,-21,6,-63,-17,49,34,-40,35,54,-52,41,-111,27,84,-38,-22,98,16,-13,69,-45,12,92,52,-1,-39,-15,-58,33,50,-128,-8,-32,-41,12,51,-40,-58,32,14,-88,15,-81,-103,-22,58,-8,61,53,72,-11,18,84,-37,23,-49,-7,-30,-59,-91,-64,26,-3,38,76,-33,-34,-4,20,13,90,-48,-33,-73,10,65,-8,19,15,-25,-42,-17,11,103,-73,-59,75,23,24,26,-66,6,-100,-2,-25,-23,33,-13,-48,28,81,36,85,17,-10,37,-52,-64,-28,-24,-112,-4,43,3,-59,-17,-63,-12,-3,-32,-39,-4,47,-70,10,26,13,-60,7,-35,13,-97,18,24,11,4,61,-92,12,4,94,56,55,-28,37,-3,62,55,49,-49,-13,40,-25,-54,-41,-29,14,-57,-45,-36,-85,-62,-22,-73,-12,40,-56,63,-2,-6,-23,78,127,-15,-14,34,-4,55,-9,-8,11,111,-38,2,-17,-38,13,-8,-50,-62,-62,-11,-29,-54,-8,11,-3,69,41,50,56,18,-24,-51,1,35,2,-45,-7,-9,-1,-60,42,14,-35,-4,47,-46,-61,13,-16,-44,29,-13,44,-60,-6,-20,-1,36,-52,-73,29,-22,24,49,-28,17,12,95,-7,27,-3,-48,1,-2,2,-23,71,-7,15,-25,11,-37,17,2,-54,-11,-9,-44,-1,5,-11,34,-12,17,-28,-28,-3,-41,38,69,7,-30,-40,16,27,24,21,-74,-30,78,24,-4,-20,-24,127,-33,-59,-26,26,-43,127,-16,40,24,-41,-32,27,-20,-103,24,-40,-17,50,3,-40,64,33,-50,84,-52,-16,20,73,-35,52,55,24,49,-30,6,7,87,-27,39,-6,-20,57,89,-48,101,-13,15,-54,-15,-16,-10,-39,-83,-77,-63,-50,-52,-33,66,-46,19,-28,127,-27,12,51,3,-38,-16,56,59,-29,18,-50,57,33,59,39,-88,10,6,17,36,8,-68,-118,-6,55,13,0,36,-44,5,-27,-94,-24,76,-37,10,-29,29,36,-62,22,-35,-29,-34,-41,-67,8,32,22,53,-19,75,5,-19,50,-27,32,-71,13,-63,28,6,36,-40,116,-11,-28,-128,-55,-54,14,24,-50,0,29,56,22,1,-37,62,41,-26,-90,5,16,27,-14,95,72,12,17,35,33,41,-46,-78,-7,-61,30,-19,15,-20,-41,27,-25,6,-15,11,85,51,18,79,36,11,33,62,6,-32,-5,-33,6,36,-102,43,-39,-1,18,11,-41,22,-47,-105,-13,-41,-49,80,-88,9,18,-9,30,21,2,-46,27,38,-45,-41,-58,-60,-26,-81,-19,29,-48,4,-3,-11,0,127,-24,54,-69,48,-73,-41,-4,70,27,92,-18,-23,-19,12,25,-5,-65,26,-8,-66,-45,81,-9,-12,-23,-11,16,-17,-27,5,-33,-15,3,30,-5,38,-42,32,-33,-24,17,24,26,-23,55,-41,-18,-5,8,-8,34,-44,-24,17,-20,-29,14,0,42,7,-36,-12,53,0,33,-3,-69,-30,22,29,68,-14,31,39,40,37,-19,-26,-55,66,7,73,-10,45,29,43,-13,38,46,-54,20,-93,-72,-16,-46,14,46,45,-31,125,1,36,-52,18,-115,29,39,44,19,47,55,-30,18,-7,-2,-128,-28,74,12,-87,-47,21,84,-42,28,-16,-21,44,-35,82,-35,-2,-13,42,12,32,-20,-20,-42,-49,32,-22,25,9,94,29,-48,7,1,-32,68,-74,-59,29,-67,-21,30,-70,13,-37,-21,-16,74,-38,-14,-52,-1,-86,68,-56,66,74,94,-45,126,-37,117,-37,-11,-30,-32,-1,49,6,-24,47,-42,5,26,-60,-25,4,-11,-35,-9,10,7,37,-20,50,70,10,-6,-37,-8,-30,64,39,7,37,6,-32,-28,49,32,4,-1,13,34,58,-4,83,64,11,0,-13,-31,61,-81,11,7,-66,-12,30,-29,44,-44,-54,-25,57,-24,-36,71,-1,8,40,-10,99,43,19,23,17,-2,69,-29,-75,56,-42,20,-14,-35,8,-128,27,9,-51,10,-7,-27,-19,-19,10,16,-51,64,55,8,-14,-34,17,-50,45,39,60,-11,-37,66,99,68,88,65,50,-12,-47,28,78,38,26,9,-52,43,-84,78,46,-114,3,126,-104,-39,-26,43,47,127,26,24,-48,69,-76,23,26,-64,-117,-17,-41,97,85,-73,-12,58,85,55,58,-51,-20,-60,-3,77,1,19,-7,-93,-15,76,-6,46,12,-42,-17,9,-111,-33,68,-70,-30,96,44,-29,-34,22,-8,99,-3,-80,-19,-82,2,23,-52,55,-42,-95,74,46,-123,38,-14,-9,15,19,-4,-85,11,-95,6,-44,-27,44,36,-9,42,91,41,56,-25,-7,44,-2,-66,-32,-12,-59,-11,53,0,-65,-18,-14,-67,-34,-47,-4,-12,43,-50,38,-11,25,-43,2,-9,5,-114,22,15,48,30,15,-27,28,66,94,61,45,-12,11,-19,58,2,53,-48,-22,7,-9,-40,-13,2,-29,-21,-1,-40,-39,-16,-30,-44,-3,54,-47,10,-7,-29,8,101,49,-5,-51,7,13,22,10,-29,-25,127,-3,-61,8,-10,28,29,-2,-91,23,-42,73,-128,8,21,-56,-38,-49,5,-84,-31,-13,1,13,-13,-54,-47,41,14,40,15,-43,72,23,-77,22,32,-12,105,-66,-4,-2,46,54,63,-64,-31,10,28,-97,94,-97,-7,-60,38,-3,-15,18,-42,-64,-20,-25,-28,-49,24,-58,55,12,51,12,44,24,-21,16,-85,-6,13,16,-11,-17,24,27,58,57,-30,-10,3,50,14,4,-24,-44,-4,39,37,-74,28,-27,38,10,-125,-9,106,-65,78,-78,-17,-16,65,63,2,22,92,-9,-45,64,16,71,48,-22,58,-30,23,59,-52,31,60,-12,-113,34,-39,7,-71,127,82,-42,-56,11,-93,51,40,-42,-8,-59,-27,36,32,-21,21,89,-27,9,6,2,-24,-17,33,55,-45,0,-3,-6,-7,18,-32,14,-42,-4,17,9,-41,-64,56,-37,46,47,-21,1,56,22,33,41,-33,2,25,15,8,-67,12,39,-64,-46,-15,-10,-23,77,8,-17,4,-42,-42,-29,-18,-11,-56,11,7,71,-21,-89,39,-66,12,-76,12,-19,14,-34,-60,53,8,61,-26,-51,60,14,-59,-66,109,-16,66,17,-20,-124,-65,23,2,-10,7,13,-44,1,0,76,20,2,-15,28,-8,6,5,67,25,31,-3,-1,11,-69,56,122,-11,53,71,-26,14,7,-17,-17,-26,-62,-12,51,-44,3,12,-26,86,58,-20,-3,-27,-62,12,-36,-15,22,-17,50,-39,-61,109,-58,59,-25,-67,-14,-16,-5,-15,-9,123,21,-128,124,89,-53,6,-28,-57,-42,18,-79,-39,-10,-29,19,85,23,81,92,0,-22,-48,-5,8,33,-90,6,-3,-11,-9,37,6,-36,27,11,-88,-67,1,11,-22,11,-52,44,-76,1,6,-43,-19,-12,-127,0,-42,43,58,-35,38,74,127,4,65,19,-13,7,-53,16,-45,65,-78,40,-23,-38,-23,43,0,-91,-39,28,-35,48,8,-7,15,-16,64,-22,-50,-12,-41,45,66,45,-26,-55,7,18,-12,54,-56,-20,67,44,-28,-32,-28,111,40,31,-14,21,1,24,-51,13,-25,3,-53,-71,38,-47,-11,28,45,5,-1,-55,-44,42,-10,-39,6,-11,73,-29,-68,-9,5,21,50,-42,36,48,8,7,76,-37,-73,6,-29,-72,21,-118,1,-22,36,35,-78,54,-58,13,29,-19,-21,-38,13,28,113,-6,0,-15,79,11,-37,14,-86,23,-58,-27,-46,-84,25,-7,-42,94,25,-50,42,34,42,21,-42,49,1,20,56,-81,8,-2,68,12,-83,-26,81,-65,47,-128,-8,-44,57,-17,6,-14,25,41,-16,53,11,15,64,51,14,6,11,11,22,-28,36,12,-64,-73,-77,28,40,-34,38,-16,13,2,-20,-7,28,83,-23,-42,-43,6,-30,5,-40,-19,-86,8,-11,21,17,34,-74,31,1,-11,52,-16,-71,48,15,50,48,33,-19,1,17,-4,-22,-12,-13,19,-87,-90,-61,-57,-39,-10,-51,15,36,-58,34,-31,22,49,-16,127,-61,-1,71,22,14,26,-20,4,72,-15,54,-55,-114,84,11,40,10,-66,12,-104,14,-41,-16,19,-2,-37,-5,74,29,73,-2,-20,30,-16,-52,-41,15,-82,23,33,-21,-49,-20,-54,-15,-3,-39,-12,-22,13,-55,27,15,7,-24,-1,-28,34,-68,45,28,20,-13,48,-33,-19,19,95,29,64,7,28,-7,39,11,30,-45,-15,15,-19,-41,-28,2,-4,-15,-11,-9,-43,-55,-30,-40,-40,28,-31,30,-7,-20,-40,94,75,13,-21,-7,5,26,-13,-14,6,127,-26,-42,24,-7,11,26,10,-36,0,-35,-12,-89,21,-2,-28,-68,-81,18,-40,4,38,38,19,-9,-83,-60,35,-19,-54,12,-21,39,21,-54,-53,47,14,33,-74,-5,7,-21,6,72,-45,-47,9,-8,-43,34,-62,23,-54,5,67,-86,21,-74,-12,4,6,-48,13,17,0,93,27,29,13,61,-16,-46,-41,-79,41,-43,-47,3,-75,-27,26,-8,38,-3,-54,61,19,22,-11,-4,65,-10,51,56,-57,61,-32,49,33,-51,-50,127,-89,18,-56,-22,-35,18,21,36,31,-16,50,65,-48,-7,-2,-59,-1,-103,-64,3,-45,0,23,64,2,127,-14,11,-72,40,-98,5,53,90,33,93,-4,-37,4,32,3,-89,-59,58,0,-59,-56,76,55,-38,0,-17,-12,1,-54,42,-78,-40,-29,4,18,45,-42,2,-41,-24,29,-13,52,-16,82,-8,-39,8,-28,-32,65,-56,-35,34,-43,-54,32,-31,28,0,-4,-36,69,-42,33,-17,-23,-58,54,-32,62,36,65,23,65,-34,105,14,-3,-28,-62,3,-58,-73,6,25,-16,-10,-54,14,60,-26,26,0,-32,55,-58,-59,-10,59,-90,3,-12,65,-118,-44,1,41,-7,75,-61,-44,45,-29,53,-28,-54,-39,3,-39,-76,-35,17,4,-1,27,39,-73,-13,41,7,36,10,-49,20,37,7,67,47,-35,7,35,27,-90,9,-57,-22,-48,-51,-70,-42,-74,-31,-2,-15,15,-41,29,23,-16,-6,72,127,-32,6,47,-41,24,17,-19,33,94,5,59,-6,-18,71,-30,5,45,-62,50,3,79,-17,-12,53,64,51,14,72,18,8,-27,-11,70,41,41,-24,10,13,-44,53,2,-122,8,76,-41,-8,-34,53,11,78,14,16,-49,59,-37,30,-12,-19,-70,51,-18,80,28,-40,-11,-7,72,74,28,-10,16,-31,7,50,-9,-18,-23,-73,-14,60,-8,39,39,-20,22,10,-66,-15,18,-66,-26,24,14,-4,-19,15,-12,28,35,-34,-5,-58,-24,24,-50,47,-41,-52,127,38,-126,96,-16,13,-65,19,17,17,6,-39,28,23,47,-23,8,29,-53,30,-44,-49,-9,-3,29,44,28,-12,26,16,-10,-37,-27,12,47,-31,60,7,23,9,-70,-37,-17,-15,-41,3,14,-1,-80,22,6,63,-18,21,-17,51,5,-57,4,-19,-40,41,-24,76,15,-10,-42,-31,-25,50,-27,32,9,-29,44,-52,20,-41,30,74,-38,-21,19,-75,-29,21,-17,-19,-4,-4,15,49,-25,-3,-18,59,4,52,-50,34,107,-14,7,73,-65,127,61,30,-76,-16,-29,-41,-115,-4,-18,-14,-36,-97,40,-12,1,48,24,-5,13,-70,-128,23,6,-68,31,-7,53,-15,-77,-42,-10,-28,46,-76,-7,6,-34,56,61,-57,-62,-11,-17,-49,-11,-92,13,-28,36,49,-38,52,-5,22,45,21,-26,-9,-11,3,81,62,-27,20,59,-27,-57,-20,-97,-13,-59,-15,-15,-60,-12,4,-16,34,32,-55,35,28,1,0,40,64,20,21,48,-69,47,-22,35,24,-49,-33,94,-80,55,-59,22,13,-44,-104,-22,-94,-45,-44,-11,0,4,-33,17,66,59,82,-27,3,56,-48,-87,-29,-20,-73,-9,54,-11,-36,-52,-21,-15,-21,-19,-44,-37,22,-46,52,26,0,-61,32,32,2,-72,35,39,3,10,48,-48,-24,16,87,32,51,-33,24,5,29,27,67,4,-21,9,8,-69,-53,-26,7,-2,-27,-24,-84,-32,-14,-11,-15,13,-45,34,12,-36,-26,123,25,13,-13,11,9,81,-36,-26,-15,127,-39,3,-13,5,26,18,23,59,-5,64,-6,48,17,-22,58,6,-23,22,44,-27,22,34,-29,42,17,17,1,35,-43,-4,13,68,-128,-1,10,-17,16,8,26,47,93,-8,-5,-18,11,-40,0,-85,-42,-53,-37,-33,61,32,-6,-70,52,20,45,62,-11,16,-18,3,71,71,-20,-63,-45,38,22,-17,46,-33,-4,-73,-21,-80,-30,-13,-66,-77,56,49,-36,16,25,29,45,-22,86,-22,-32,32,-39,-58,54,14,7,42,25,-34,34,-23,-55,21,-35,-102,10,-75,33,-105,2,0,-20,14,8,65,-44,56,-18,-26,48,-22,-45,-71,47,-79,42,-30,13,6,120,-24,-5,-45,-59,25,-54,-21,-37,2,39,33,-24,-20,-14,96,-22,-5,-53,-1,-44,42,7,36,38,-14,-63,-1,-13,-61,-10,-9,-38,-13,79,62,44,5,-23,4,-43,-28,-17,-16,5,20,-15,46,53,62,42,2,-24,-2,-19,-23,18,9,-71,9,15,28,-16,80,-40,-3,-36,-92,-29,102,-128,18,10,-35,-64,-1,2,-39,26,-22,36,36,-20,6,43,8,-11,8,-41,-26,26,-22,-24,42,8,-47,12,-60,-2,-15,63,40,7,40,-2,8,-22,-26,-14,11,-31,-41,-13,29,5,40,-4,13,47,-3,-32,-20,3,-3,-28,-14,-70,-32,-26,-55,35,23,-32,-20,26,50,40,-30,-2,3,-24,20,14,4,-51,15,3,-22,36,40,-37,-41,5,8,-25,-1,9,-24,15,-34,29,20,38,47,-13,-41,6,2,-14,78,-49,-72,127,-22,-60,-13,-10,34,47,-14,29,25,-9,65,50,17,22,-63,-72,-39,-24,52,34,30,12,68,15,-46,-1,63,-128,8,108,0,-23,71,8,-14,62,35,26,-107,-11,8,8,-20,-92,-11,29,-46,41,45,-59,6,-4,96,-58,2,-44,-25,-8,32,-6,-7,11,-22,-7,-19,71,-29,86,-1,-62,-8,-6,-85,36,-2,-49,36,3,1,-8,-46,19,-7,67,-8,4,-52,-18,17,-14,-61,76,-46,-5,68,67,-20,49,-39,107,-18,-46,20,-39,25,58,36,-5,-33,67,81,66,108,39,47,-15,-37,34,66,11,21,22,-78,26,-103,75,58,-91,6,112,-90,-34,-16,27,48,127,33,14,-47,55,-81,26,30,-75,-99,-35,-42,72,80,-50,-33,65,60,26,57,-56,-44,-49,10,72,29,31,2,-79,1,72,-8,39,0,-23,-34,-20,-121,-53,58,-48,-34,106,40,-34,-22,14,8,108,-19,-42,-36,-61,33,17,-36,50,-41,-83,60,29,-62,2,-45,15,-4,8,-4,-21,41,3,-6,10,30,-22,17,-10,-42,26,-67,-18,-10,-47,35,33,5,-17,123,-1,26,-25,38,-128,-33,53,36,4,55,12,-26,21,7,44,-52,-22,18,16,-50,-50,26,35,-17,29,7,-21,7,-32,63,4,-8,-8,25,-9,29,-3,-7,-27,-35,-18,-8,58,-34,71,-12,-48,25,18,-44,36,-26,-54,19,-25,-24,22,-31,38,-14,-10,27,11,-1,-6,-26,-24,-56,53,-15,30,67,52,-51,92,18,26,6,29,46,-72,14,-104,35,-27,-27,47,-6,-19,24,88,39,86,8,-14,39,-33,-35,-35,-25,-101,-2,47,-21,-46,2,-58,-15,11,-59,-16,-1,41,-68,-3,9,24,-41,10,-29,32,-97,40,27,23,-10,54,-72,1,0,96,52,57,-24,46,-18,63,37,33,-40,-19,22,-24,-36,-50,2,15,-35,-40,-18,-76,-59,-26,-71,-21,33,-50,49,-19,-3,-23,74,110,-7,-19,14,13,42,-8,-14,4,127,-37,-27,8,-40,11,22,-20,-113,-85,-86,-61,-107,-37,-22,-22,20,-12,55,26,100,51,-52,46,19,-70,-114,4,-87,-26,-38,71,-31,76,-43,-28,-52,-60,-29,-69,-47,-12,-38,56,52,0,-63,15,107,4,-67,3,49,-28,31,25,4,6,7,27,7,38,-76,10,-16,-3,1,109,46,22,6,-22,-53,-90,-22,1,15,-20,21,-83,22,42,27,3,5,-44,19,-16,-47,-22,108,-54,24,-3,32,16,127,-70,-31,-57,27,-63,61,-98,29,48,-14,-52,11,-33,38,-5,9,21,-4,28,73,38,62,69,-23,-44,-30,-16,51,29,7,4,27,-23,-62,23,62,-127,16,72,-35,-32,26,12,-2,80,-7,22,-97,4,-5,-7,-36,-77,-78,16,-53,63,56,-33,-24,38,110,-17,54,-32,-40,1,2,35,8,42,-50,-7,-12,33,-25,71,-2,-47,-51,-31,-94,4,-7,-46,-17,17,41,-36,-27,6,-10,76,15,62,-67,-52,32,1,-45,85,-54,-15,100,56,-23,21,-72,111,-10,38,-34,-128,-18,-35,-1,-74,13,-5,5,-12,-24,42,74,81,-47,18,69,-36,-46,-38,-11,-6,2,66,-35,-55,-65,30,-2,-14,-18,-23,-38,21,3,54,54,26,-85,60,83,8,-25,62,52,22,9,11,-8,-62,8,118,-20,37,-3,-34,29,24,0,20,59,-82,5,68,-46,-56,10,14,85,14,-25,-84,10,-21,12,-1,-34,-2,6,26,-31,-54,108,-107,51,-15,-38,11,55,-50,-19,-58,124,-34,-84,58,75,-36,-32,-42,-80,-84,-1,15,-26,-35,39,-23,93,77,13,36,32,-37,-88,0,63,38,-4,-21,39,84,-41,58,-1,-70,-33,110,-46,-60,14,20,-61,8,33,80,-61,12,-13,24,78,-54,-18,78,-18,49,35,-69,73,-45,113,16,-26,-17,-15,-40,15,-22,-75,30,26,-39,-49,84,-19,35,40,-54,87,43,-53,24,40,-36,75,-3,-31,21,-70,27,-53,16,85,-128,13,-56,-35,37,-11,14,-82,-66,106,63,-88,78,27,101,14,-1,-66,-11,37,-30,-63,0,20,-30,47,-9,1,36,-69,-50,-26,-50,25,47,-59,-9,127,12,40,-23,34,-114,-18,56,-22,-51,74,15,-43,-9,1,75,-72,-44,38,-32,-49,-58,-7,0,-52,35,37,-47,56,13,127,-25,18,-1,32,-28,-10,-23,-36,9,-79,27,-20,24,-22,94,-10,-106,9,51,-41,85,-7,-41,41,-23,23,16,-61,33,-29,18,40,21,-4,-39,-21,-38,-65,64,-43,29,37,76,-46,58,33,60,21,-48,-71,-38,-58,-35,-107,10,-13,-3,23,-8,85,26,40,5,-34,41,-2,-61,-91,29,-85,-41,-53,43,27,42,-12,-18,-44,-56,20,-60,-14,19,-43,24,3,-33,-44,-8,48,-40,-76,-40,1,-19,49,22,-30,58,21,-37,52,0,-91,18,-8,1,34,103,12,44,8,-38,-47,-33,-39,-10,-62,-42,-17,-58,2,37,15,32,31,-62,18,-20,-16,40,34,48,-34,3,69,-2,83,-14,-34,-20,-5,-32,114,-128,-35,88,0,42,24,21,26,-16,-3,15,38,-52,-66,-67,-105,-26,-71,21,44,-50,-3,-13,14,-21,127,-38,83,-76,5,-58,-29,-34,105,59,58,-21,-35,-42,9,6,14,-47,43,1,-64,3,112,40,20,-34,-57,35,-22,-78,-34,0,-53,20,51,19,42,-37,22,-62,-9,3,23,19,-24,14,-22,12,31,-6,30,23,-68,-19,7,-55,-54,31,21,33,14,-82,-4,52,17,54,-24,-54,-23,-9,41,84,10,5,10,71,35,-37,-2,-5,-36,-42,40,-35,-23,-12,14,-11,57,12,-1,53,-37,-33,-37,-44,43,42,-37,-27,102,5,11,11,26,-125,-16,60,-31,-42,42,16,-42,20,-2,62,-72,-11,13,-8,-37,-47,-33,38,-33,53,31,-49,44,0,127,16,19,10,25,-17,-6,1,-39,9,-60,-6,-31,33,-34,78,2,-83,19,32,-51,54,-7,-57,25,-21,18,4,-51,25,-37,18,64,11,-3,-45,-26,-12,-59,57,-44,7,92,71,-73,77,13,73,2,1,-7,-24,30,-23,-42,19,43,-44,-19,-48,-38,30,-73,1,11,-56,38,-23,-13,-5,126,-55,30,-46,56,-127,-38,22,66,4,89,-31,-44,22,2,41,-48,-55,5,7,-66,-69,39,40,-9,11,6,13,-28,-38,51,-7,0,5,-6,2,49,-25,40,-2,-33,7,12,47,-51,48,-39,-40,-3,-20,-41,9,-57,-45,15,-29,-20,-2,1,41,-15,-26,33,96,-20,16,3,-41,-29,34,-17,65,81,35,14,57,3,55,19,-11,-92,-23,20,-85,-84,-6,10,-19,25,-37,26,47,-39,-26,-14,-30,3,41,-128,-4,49,-25,22,2,3,-22,-4,-35,-50,-63,21,-11,-50,-45,-57,67,-50,-31,23,-42,-51,-9,-77,-8,-28,-8,22,-6,51,35,102,-7,48,38,18,4,-54,-24,-29,61,-92,63,-21,-63,-26,29,-15,-83,-25,42,15,66,-7,-7,17,-34,68,-24,-23,4,-40,13,64,56,8,-42,3,-2,-20,32,-37,19,15,43,9,-11,19,78,34,31,28,-18,29,-12,-12,15,-18,29,-44,-75,30,16,-24,47,62,-17,42,-43,-18,7,30,-78,0,3,95,-128,-49,-10,17,27,38,-37,36,94,-9,6,32,-23,-76,10,-65,-67,-20,-56,-3,15,26,40,-114,40,-22,41,57,-1,-25,-17,30,59,118,4,-33,-51,80,35,-59,16,-76,29,-75,-46,-87,-89,-32,-50,-75,67,35,-55,53,37,35,17,-9,110,-22,7,58,-65,-5,20,42,20,28,-15,39,-10,-5,-89,-30,-66,1,0,-34,20,-19,33,20,-2,19,51,29,-2,13,-41,-27,31,-16,-26,39,19,-67,8,-76,12,-9,67,42,6,15,-12,-1,-16,-17,-5,5,-32,-45,-6,18,0,40,-5,-13,36,-1,-22,-3,4,-4,-7,-5,-73,-10,-28,-68,40,13,-19,-22,41,46,38,-29,-9,-1,-24,21,17,-16,-49,3,-7,-9,40,36,-22,-21,-7,1,-33,-3,25,-27,16,-43,22,30,42,44,-7,-45,-7,-4,-18,75,-67,-80,127,-19,-55,-46,-94,2,-6,-12,-35,-16,30,114,85,91,82,60,-21,-78,21,63,15,-36,-7,-47,26,-97,96,18,-72,-10,104,-96,-74,-16,5,-22,76,-4,58,-75,43,-62,7,71,-54,-120,44,-22,70,78,-69,32,27,126,37,47,-14,-59,-35,-11,32,-32,74,-4,-31,-40,47,-27,25,24,-50,-2,9,-75,-25,35,-36,22,37,26,-28,-41,2,-46,65,78,-64,-23,-75,3,50,5,25,-89,-82,127,44,-75,6,-28,111,19,10,51,5,59,6,35,18,-22,55,6,-26,25,33,-25,11,37,-22,41,11,18,9,33,-42,-8,11,79,-128,-4,22,-13,15,20,14,58,92,0,-7,-13,2,-41,1,-80,-46,-49,-49,-31,52,30,-2,-71,55,16,34,62,-12,3,-21,11,59,79,-18,-50,-44,43,28,-17,53,-39,-2,-71,-27,-88,-35,-10,-60,-69,65,42,-36,16,23,36,47,-32,85,-28,-28,30,-41,-51,58,20,5,27,21,-17,20,-27,-62,-14,-51,-9,-24,-61,-21,-25,9,-4,5,-1,30,47,11,69,16,-20,52,-17,-64,-7,14,-128,-28,-69,41,-31,112,34,-40,4,-11,-44,-37,-10,-4,-25,-36,10,3,-20,9,66,26,-50,17,26,-37,-13,45,-32,8,-42,-28,0,5,-81,52,-4,6,1,70,54,36,-10,-46,-11,-84,10,50,-34,-63,24,-67,-13,64,8,-12,-4,-34,39,-51,-2,5,6,24,-21,25,40,47,102,-48,-32,-15,3,-66,98,-113,-79,98,-7,-75,8,31,36,30,-45,60,42,-13,10,-6,23,18,-96,-69,11,-37,35,-3,19,24,85,-44,-32,-57,105,-127,8,60,43,2,116,-20,-10,68,15,13,-96,-58,11,-8,-81,-122,9,-5,-64,19,32,-5,-46,27,73,-88,26,-46,-42,9,50,-17,55,5,-51,34,21,43,-39,104,-44,-47,-72,-53,-93,29,-42,-43,7,5,9,-24,-15,25,12,56,-37,127,-78,17,50,-50,-54,88,-31,50,43,55,62,10,-60,115,0,39,14,21,33,-15,-9,11,37,-53,-56,-59,-92,-27,-73,7,33,-51,1,-6,10,-21,127,-27,80,-74,10,-59,-35,-23,89,45,67,-18,-35,-38,9,14,10,-46,40,2,-63,-8,101,25,8,-24,-42,25,-15,-64,-17,-4,-44,15,51,10,36,-37,17,-56,-11,3,15,24,-18,32,-24,-4,29,6,22,35,-58,-23,8,-46,-43,28,10,31,2,-69,0,46,18,40,-24,-52,-32,0,34,76,3,16,5,74,40,-31,10,-95,-15,0,-1,40,-63,56,-7,32,52,31,127,25,-34,-67,-10,12,35,-14,-5,44,-54,-44,-115,28,112,-68,12,67,-31,-34,54,-24,25,117,-4,-9,-80,-36,-47,-9,-16,-120,-74,-53,-49,36,80,-21,-67,95,58,-89,80,-71,-110,8,17,21,62,64,-32,21,24,23,-32,69,-52,-29,-120,-89,-119,-45,5,-12,-11,66,49,-78,-4,-9,12,121,-32,106,-100,-21,105,-15,-2,61,-42,-15,5,23,107,-97,-118,116,19,39,-4,38,13,19,38,-19,-40,35,4,0,26,-24,26,17,15,8,-20,25,-10,23,-37,48,27,15,-14,41,-3,-1,-51,5,-33,36,51,2,16,-13,54,24,-11,-13,15,26,-8,-74,-4,17,23,-21,28,52,-22,30,20,10,43,-51,-33,31,-1,-24,-5,-23,15,-21,33,-4,-1,6,-9,46,22,2,67,5,-19,64,35,6,0,1,26,8,-23,-68,42,-20,-5,0,-27,-5,48,-37,-90,1,-39,-8,55,-128,-48,-52,27,9,-17,30,22,24,39,-20,0,52,-37,-8,-2,-40,-21,10,-25,5,74,-15,-15,23,-30,-13,-44,54,56,6,49,13,-7,5,-36,-34,13,-34,-54,2,61,3,25,29,36,84,3,-22,-43,-6,21,-61,-13,-59,-56,-21,-22,49,15,-45,-54,-9,46,38,-47,5,22,-15,63,17,35,-20,42,37,-23,28,48,-68,-48,28,-10,-30,-8,-12,-25,-9,-26,23,-21,50,14,-9,-37,16,17,-1,20,5,-72,127,26,21,-46,-99,-27,-121,-61,-39,-10,-4,-7,-49,21,76,61,92,-12,-5,44,-61,-114,-27,-21,-98,4,50,-10,-31,-43,-57,-16,-32,-17,-59,-44,15,-63,53,27,-11,-56,20,21,12,-83,29,44,-7,8,68,-56,-13,10,84,39,70,-41,38,-2,30,33,80,-22,3,21,-16,-81,-64,-36,3,-22,-35,-20,-88,-46,-2,-24,-27,29,-53,46,1,-39,-37,127,73,5,-6,18,1,89,-35,-22,-5,125,-48,24,-32,-3,35,-5,-56,-52,-57,-18,-22,-57,0,-2,7,64,38,68,49,34,-16,-49,19,29,-13,-51,6,-42,-11,-75,51,19,-21,5,38,-51,-58,5,-30,-33,37,-23,43,-52,-7,-27,0,42,-47,-92,17,-16,20,50,-17,2,31,75,-14,38,-6,-66,6,-9,7,-10,89,-5,23,-17,2,-38,5,-5,-42,-29,-25,-45,-22,5,1,24,3,22,-44,-13,-11,-38,43,64,24,-34,-36,34,20,43,19,-63,-34,69,12,29,-53,-43,127,24,48,-47,22,19,-38,-93,14,25,-50,-53,-101,-41,-31,-92,3,43,-64,8,-15,-81,13,127,-57,96,-78,53,-73,-63,-28,52,2,98,-43,-39,-29,-4,49,15,-71,8,-23,-97,-61,66,-52,-6,-28,10,43,-31,2,16,-22,5,31,30,-3,23,-29,67,-7,-59,37,38,7,-43,47,-75,-40,-20,20,7,31,-47,-39,4,-19,1,-5,10,51,-4,-48,25,100,6,20,11,-93,-32,13,43,93,-31,13,63,10,65,-30,4,-57,-20,-51,-14,-26,-51,21,-5,17,42,18,93,56,12,-12,-23,10,29,-21,-39,11,-47,-52,-80,40,53,-35,10,21,-33,-41,9,-38,-8,63,-31,10,-60,-9,-36,1,3,-57,-105,0,-25,24,53,-5,-45,52,65,-27,60,-11,-89,23,-2,27,31,90,-30,32,8,-4,-40,16,-24,-27,-73,-55,-73,-42,-14,2,-1,15,43,-60,-7,-24,-8,65,28,92,-59,-21,70,16,31,30,-49,-15,64,9,51,-76,-86,127,31,44,21,-77,23,-102,2,-31,-34,48,-3,-54,31,82,19,88,9,-20,48,-29,-71,-32,7,-101,16,47,14,-94,-28,-46,-29,-10,-29,-23,-4,62,-62,31,16,6,-60,0,-47,2,-103,4,15,41,20,45,-70,18,25,110,68,55,-11,18,-6,73,57,36,-66,-27,41,-5,-55,-23,-30,-2,-53,-17,-46,-70,-49,-36,-75,-5,60,-58,41,3,-10,-10,88,113,-1,-31,21,-19,29,4,-2,4,127,-23,-33,7,-19,-13,-34,6,124,3,-16,-46,108,3,-29,59,-29,19,14,46,49,38,29,29,-28,-12,54,-16,-126,-67,-50,21,-61,84,95,-103,17,42,-128,31,36,2,-60,-108,-3,49,8,-10,-18,114,-74,50,26,-14,-63,60,-65,-12,-71,14,18,24,-27,85,-27,53,3,4,3,15,6,-82,28,-83,45,78,-54,-72,41,-48,-59,32,-74,-45,11,-24,58,-64,13,-17,-15,117,-30,8,21,77,48,-21,-10,10,57,-71,15,-51,-118,50,6,48,-11,-22,27,-35,-29,-12,30,-44,-50,-72,-87,-3,-57,32,23,-55,24,-28,-27,-30,127,-41,76,-48,16,-92,-53,-13,75,32,64,-28,-46,-17,2,39,19,-42,9,15,-44,-17,71,31,20,-13,-21,31,-26,-63,4,35,-29,27,43,1,40,-23,30,-32,-18,-14,26,37,-50,21,-32,-9,35,-3,3,3,-61,-37,8,-40,-41,12,18,49,-2,-69,41,45,26,33,-23,-60,-11,-6,21,61,52,10,-4,82,52,-32,-1,-7,21,-67,-14,-80,17,-21,-30,52,26,16,61,84,63,53,-16,21,18,-27,-32,-16,-81,-73,-55,72,-16,2,16,-44,-46,-25,-66,-13,-3,39,-60,-7,-12,27,-38,2,5,36,-128,31,12,24,14,35,-52,27,22,55,58,35,-52,41,-26,58,5,67,-25,-4,1,-30,-24,-45,4,11,-45,-37,-25,-58,-37,3,-44,-4,49,-51,36,-33,-14,14,72,87,-24,-39,27,41,62,-1,-35,-19,107,-35,0,-48,-66,69,11,-24,-52,-50,-47,-46,-110,21,28,-41,-25,-59,18,23,1,29,-13,5,20,-81,-72,-4,5,-87,-18,-6,44,-23,-35,-29,48,-26,50,-89,-51,12,-41,36,-7,-62,-31,9,4,-52,-16,17,21,-43,10,55,-72,-4,0,-22,15,11,-85,48,28,-9,61,73,0,30,37,2,-91,-32,-63,0,-46,-79,-30,-77,-68,12,16,-24,-3,-53,39,7,-20,-20,61,109,-35,40,64,-36,88,-25,-20,34,57,-35,127,-69,-31,95,19,27,26,24,32,24,56,-15,-53,58,17,2,42,-8,20,11,15,10,-4,36,9,10,-36,29,5,23,16,-16,-2,13,-74,-9,-36,50,71,43,5,-18,39,41,-33,-7,-22,10,-50,-75,-16,43,36,-25,3,77,0,41,46,-12,31,-59,-38,55,18,-22,-26,-43,19,-9,33,19,0,8,-31,45,-21,-12,66,-19,-56,76,53,-9,-10,2,21,47,-36,-41,19,-39,0,-9,-47,21,35,-43,-52,8,-58,3,26,-128,-4,-18,23,17,46,30,-4,40,28,-17,-14,-21,-28,3,-80,-27,27,-43,29,5,39,5,105,-25,4,-49,64,-127,-18,50,58,25,79,-4,1,46,29,9,-44,-33,9,5,-69,-79,46,4,-35,19,5,-6,-36,-16,30,-24,-3,-30,6,-8,44,-7,42,-37,-33,-16,23,61,-29,73,-32,-24,-20,-22,-63,9,-38,-55,-5,7,-18,6,-5,34,11,19,-32,71,-29,13,10,-46,-63,56,5,45,30,48,8,58,-14,19,-16,1,2,-5,38,-16,2,8,24,-37,7,-18,-41,-5,-72,-17,21,-73,5,16,6,-22,127,-13,41,-37,36,-98,-7,-15,30,-2,34,13,-56,2,-7,11,-45,-19,48,8,-62,-27,35,65,-16,-3,-32,-8,-26,-56,47,-17,-3,-8,30,25,7,-7,-15,-18,-31,-1,-19,22,-16,45,8,-35,21,-12,-10,44,-67,-24,1,-44,-17,2,-5,25,-25,-9,32,53,-16,18,-5,-37,-62,14,-7,51,66,50,-18,82,10,52,18,62,-13,-39,34,-24,30,-58,-9,14,23,-21,-34,18,13,46,-13,-35,44,32,-34,-30,71,22,47,16,-15,-89,-50,30,-41,-8,-15,30,-3,10,8,54,37,34,-25,17,-4,8,-2,10,4,43,21,-22,20,-24,43,95,8,32,67,-53,-7,30,-12,-34,-25,-72,-1,39,-12,17,11,-22,57,67,-11,0,25,-57,-17,10,13,23,-27,43,-23,-34,65,-86,52,-46,-55,-20,-41,6,10,-32,54,36,-127,107,94,-105,-4,-25,-58,-43,30,-10,-50,-5,25,-23,58,14,-3,37,-41,-48,-45,-36,49,31,-41,-15,104,19,-6,2,36,-126,-22,86,-21,-43,69,1,-49,21,14,77,-83,-18,10,-4,-19,-80,-12,36,-33,50,49,-56,42,-8,127,-14,8,-5,3,-17,14,-13,-30,17,-42,0,-30,51,-39,83,-2,-90,25,22,-57,52,1,-57,48,-19,9,4,-54,36,-33,26,56,-6,-17,-39,-17,-15,-51,63,-53,-1,83,74,-53,61,16,96,20,-33,-107,-21,-87,59,-87,-4,-15,8,22,5,72,-48,84,15,-24,75,11,-66,-57,51,-126,61,-58,63,28,85,-58,40,-54,-54,21,-49,22,28,20,30,93,0,-90,33,126,-51,-21,-98,25,-16,54,-4,-6,46,-34,0,22,-15,-69,-68,-3,-11,35,65,74,-34,35,22,-17,-57,-64,33,5,-1,-28,-83,76,34,32,106,4,-45,20,12,4,36,21,-128,21,9,51,-36,82,-57,19,-90,-94,-45,59,-112,69,-81,-5,-35,-42,-85,9,-27,-6,-21,-20,37,96,60,68,81,40,-7,-64,5,62,26,-46,-19,-24,8,-73,77,8,-84,-8,80,-85,-70,-15,10,-22,69,-9,58,-67,37,-41,9,34,-43,-123,37,-24,66,57,-53,23,23,124,49,47,1,-33,-18,-17,36,-33,63,-25,-16,-22,34,-39,25,16,-57,-2,5,-68,-11,25,-42,7,18,39,-33,-38,3,-39,48,85,-31,-26,-68,7,37,-8,34,-75,-60,127,37,-77,12,-21,98,-2,37,38,35,40,-6,18,21,30,-35,-58,-52,-92,-27,-81,2,43,-52,-4,7,34,-16,127,-33,80,-76,9,-60,-17,-27,96,63,58,-1,-22,-30,13,-5,-4,-36,49,-1,-78,-3,96,27,4,-16,-50,25,-23,-57,-24,-10,-38,12,51,20,35,-29,22,-71,-19,9,20,19,-5,35,-15,6,19,-4,20,35,-63,-25,-2,-50,-44,31,12,30,14,-60,-21,61,7,42,-19,-45,-46,11,36,80,2,16,3,77,21,-36,43,84,-12,10,0,-87,-33,-20,-9,-17,-67,-128,-71,0,-65,64,50,-38,-1,-1,-103,-18,81,-97,116,-43,-24,-28,-46,-104,47,12,25,-1,-13,-46,-57,39,55,-37,14,-16,-88,45,23,-56,-5,-22,-40,58,-32,2,-11,58,19,69,62,32,-32,-6,49,0,-79,18,41,-61,-35,-24,-62,3,-14,24,52,-15,-68,-7,-31,-42,12,-10,54,8,-18,-83,51,119,40,28,1,-56,-14,-20,41,82,-23,-19,26,16,57,-114,8,-24,-77,-96,-31,-46,-12,-6,-55,-49,75,39,55,-13,-43,-61,-31,57,-71,43,-49,-45,-110,28,23,34,-34,19,-9,-28,1,-49,64,6,-28,-5,15,59,-41,-59,39,-47,19,52,-14,6,66,-52,-32,10,16,75,38,3,20,13,7,-89,-37,-68,-60,-20,26,26,-10,-46,-6,-1,16,10,-4,116,10,20,-22,76,127,-76,-35,48,-44,-64,16,-5,59,-14,27,-26,18,48,2,-33,19,-1,-59,-37,71,-48,7,46,-24,-15,97,-2,-17,-40,73,15,-26,57,-21,26,32,29,52,35,22,38,-24,-28,51,-8,-127,-58,-54,31,-40,84,80,-78,19,29,-95,10,31,18,-37,-87,1,40,-9,3,1,74,-65,31,23,-8,-43,51,-65,1,-78,11,20,15,-50,66,-17,51,8,10,19,12,2,-58,19,-78,28,75,-56,-76,18,-68,-36,36,-56,-24,9,-30,57,-57,10,7,-16,89,-30,14,32,67,60,-31,-4,-6,31,-71,36,-63,-115,55,-19,-49,44,-22,29,20,7,36,13,32,23,3,60,55,-29,-16,9,-7,50,-21,44,2,4,-62,-76,5,89,-128,5,45,36,13,45,-15,15,113,9,-9,-61,-19,-47,16,-60,-85,-48,9,-38,33,33,10,-102,25,33,-27,44,-34,-67,21,45,38,83,15,-22,-26,35,56,-47,38,-38,0,-73,-83,-116,-62,-51,-46,-31,21,15,-52,23,6,15,60,-12,126,-82,-4,67,-14,-16,53,-32,11,98,16,50,-11,-101,86,-23,-50,8,-4,-56,-11,-15,13,5,-1,-2,36,40,2,52,-1,-17,49,-32,-48,18,8,-118,-16,-63,22,-37,127,49,-40,15,-5,-42,-32,-13,-21,-23,-47,-6,-1,3,2,61,33,-27,27,21,-39,-23,49,-21,-2,-50,-50,-12,-7,-68,49,5,-7,-10,57,57,48,-17,-46,3,-80,25,49,-27,-63,42,-43,-18,64,14,-30,-16,-20,33,-54,-1,-2,-13,26,-25,40,38,58,90,-44,-29,-7,-9,-60,101,-102,-80,108,-22,21,92,98,16,81,126,8,-14,24,-32,35,-44,-77,2,-15,42,26,-63,39,127,19,-46,60,14,-35,-50,98,52,-11,28,62,-57,61,65,-36,36,-93,46,44,37,5,2,79,75,-15,11,-14,-59,-9,21,-15,-107,-20,-52,-26,57,-11,-4,5,-28,-97,46,-32,-7,-16,94,-21,57,65,24,9,58,32,40,23,-32,12,-36,57,6,-27,48,-9,-123,-71,21,20,-34,26,-41,-20,56,-7,-109,-18,-45,24,4,-114,-1,-56,-3,8,-39,42,-48,41,-29,31,8,12,93,-6,40,-5,-3,48,6,-59,3,52,-111,-16,-101,30,56,37,5,4,-8,-6,12,-38,32,69,-2,-32,1,-8,-57,10,34,-55,-46,-52,-7,-14,31,13,-68,60,-20,-57,42,-36,-95,17,14,21,63,60,28,17,24,1,-21,-24,-40,32,-70,-79,-43,-86,12,25,-15,70,19,-62,40,-14,31,68,-43,43,-56,13,77,3,53,-12,-7,-30,-35,-31,114,-128,-69,43,-3,-15,54,-6,52,4,41,25,-7,44,19,-2,35,49,-29,-12,16,-14,42,17,34,5,28,-37,-39,11,67,-127,14,36,-2,11,20,16,31,93,-1,-17,-51,6,-21,3,-78,-56,-57,-3,-36,51,37,-15,-59,36,41,8,44,-26,-14,2,13,54,57,-7,-47,-28,19,29,-17,60,-19,-11,-61,-43,-90,-19,-21,-54,-54,35,34,-38,12,16,22,62,-24,97,-46,-25,36,-23,-48,64,-10,8,71,33,-14,27,-62,25,25,97,60,1,65,-62,42,-28,-18,13,-59,-92,-61,27,-52,65,69,-64,12,4,-21,-41,110,-68,96,-37,15,-110,-36,-47,51,52,6,5,3,-1,-21,10,36,0,-3,-5,-111,14,25,-7,12,16,-30,42,-58,-21,-14,86,16,64,69,-7,7,35,53,-57,-73,-40,42,-1,-26,14,-28,16,-16,11,-3,-13,-59,-55,-70,-14,14,7,31,38,12,-66,8,90,25,12,-25,-54,-43,11,58,56,48,8,-62,101,41,-128,-7,-40,-18,-37,-62,-27,-28,0,-9,6,3,25,58,21,76,29,-23,53,-13,-53,-27,13,-128,-33,-65,48,-32,103,22,-43,-17,-19,-49,-37,-5,4,-34,-21,20,3,-28,6,69,29,-63,11,26,-33,0,46,-31,15,-32,-11,15,12,-85,41,-13,12,7,76,44,32,-3,-45,-15,-86,1,45,-37,-49,25,-71,-5,59,3,-6,3,-45,39,-47,-9,4,23,23,-16,18,45,44,103,-47,-32,-27,9,-68,85,-111,-65,77,-27,-28,47,35,27,28,0,55,74,-56,-43,-6,-77,-23,-93,-51,25,-42,-12,1,83,-11,104,-30,13,-85,22,-54,7,10,127,66,86,-7,-42,-19,31,-20,-68,-56,72,4,-58,-34,107,68,-14,-28,-52,13,-27,-88,-1,-77,-60,-27,-2,42,64,-57,14,-49,7,40,-10,42,-12,46,-1,7,17,-46,5,45,-82,-8,31,-68,-75,36,4,18,13,-45,-55,89,-34,66,-18,-26,-36,18,-17,78,20,34,51,60,-40,98,-24,-55,69,7,23,21,28,52,11,38,15,20,44,41,-29,-25,13,-2,27,-18,73,14,-22,-55,-71,-5,55,-69,41,18,42,22,18,-4,25,86,7,-48,-72,-14,-14,4,-63,-47,-34,22,-26,13,1,9,-83,16,10,-51,32,-42,-60,43,34,31,57,3,-18,-3,18,17,-16,31,-10,17,-82,-93,-73,-40,-50,-24,-39,2,8,-40,27,-6,28,51,-49,127,-78,10,62,5,-15,48,-26,19,64,7,54,-29,-124,101,-1,52,37,42,39,-9,19,14,27,-45,-65,-60,-107,-35,-74,11,50,-53,-14,5,27,-19,127,-26,94,-81,-1,-44,-18,-32,96,65,53,-6,-23,-43,12,-5,11,-33,47,0,-77,15,112,27,6,-25,-55,26,-17,-63,-32,-3,-48,18,65,10,31,-30,16,-80,-21,4,16,13,-6,26,-11,11,32,5,33,37,-57,-16,0,-53,-47,39,13,33,13,-73,-26,48,19,43,-35,-44,-46,2,46,81,-9,13,-4,85,43,-62,8,-42,-61,-51,-75,-50,-96,9,1,-16,-3,-12,53,21,52,27,-28,39,-2,-83,-75,7,-83,-58,-50,37,5,66,-7,-44,5,-39,5,-74,-37,6,-42,16,4,-33,-34,7,54,-6,-57,12,31,-42,12,49,-44,9,-9,-31,17,10,-98,45,9,-4,23,99,24,52,5,-38,-56,-68,-29,16,-38,-64,8,-71,-23,56,22,-15,8,-49,39,-30,-17,2,55,56,-29,24,62,13,114,-45,-30,-1,13,-56,127,-125,-46,104,-37,-7,-8,-53,18,79,9,-14,57,-39,-8,7,-73,-19,1,9,-23,-4,55,-14,61,-21,59,56,0,2,-3,-95,-58,78,67,18,54,-22,-37,26,68,31,16,10,-24,72,60,-54,97,77,33,-4,-18,-12,-13,-105,-12,32,-75,-32,5,-47,81,-19,8,-54,94,-80,3,124,-29,-3,6,14,116,5,-32,-35,0,-43,50,-1,-89,37,-8,51,3,-36,16,-127,19,25,-36,-11,0,-32,-9,-43,66,19,-46,103,43,-29,7,21,22,-6,43,-3,-9,20,31,-31,-33,-52,-59,2,-80,10,26,-49,26,-13,10,-16,124,-45,41,-62,47,-128,-39,19,75,31,79,-17,-23,22,17,22,-26,-37,12,17,-74,-49,64,19,-8,4,-13,13,-35,-46,18,5,-17,-2,26,3,47,-11,48,-38,-29,-17,29,54,-44,50,-35,-14,4,-19,-42,5,-53,-47,2,-20,-37,7,5,46,8,-33,0,66,-8,23,-4,-60,-46,37,11,64,46,30,2,76,18,-11,12,-50,-59,-56,-67,-42,-75,4,-13,10,17,11,84,36,66,28,-37,53,2,-61,-76,12,-115,-39,-64,65,-7,61,3,-27,-43,-49,-22,-59,-20,16,-46,13,2,-5,-49,11,70,-5,-93,-6,22,-26,24,35,-31,31,3,-14,37,9,-93,29,-17,6,11,106,22,37,-4,-41,-44,-62,-18,6,-46,-48,-1,-76,-1,49,14,9,25,-63,31,-38,-21,26,46,42,-30,1,59,24,105,-32,-42,-28,23,-52,96,-127,-54,92,-10,-2,56,73,-15,47,66,15,-12,20,-27,33,-2,-55,24,-15,36,41,-63,10,77,20,-83,31,-7,-15,-45,127,50,-37,8,34,-55,25,47,-34,13,-83,28,33,20,-9,18,68,32,-29,12,-31,-39,6,8,10,-90,-37,-19,-18,9,8,-15,-1,-19,-42,42,7,-3,-46,69,-40,33,64,-8,-10,59,6,29,45,-21,11,-12,19,11,-42,37,2,-90,-27,4,22,-3,37,6,-31,38,-6,-103,-38,16,-42,-25,-52,-7,37,36,26,30,-22,13,20,37,-50,-65,-51,-108,-18,-76,13,38,-56,-8,-7,20,-28,127,-44,85,-77,-6,-39,-17,-39,107,60,48,-9,-48,-49,-1,5,-10,-45,59,1,-67,20,101,58,18,-29,-62,35,-15,-89,-28,2,-55,20,47,41,43,-33,8,-61,-22,19,6,12,-19,15,-7,9,35,-7,41,31,-77,-20,8,-77,-53,36,13,23,-5,-91,-8,60,18,51,-30,-34,-24,-5,28,92,18,6,8,87,17,-7,-5,37,29,54,-14,32,63,-21,-19,-9,-24,19,-49,-60,19,-4,6,20,-60,36,45,0,-30,66,42,-20,-79,127,35,-35,-8,24,-60,41,18,-75,15,-35,48,32,45,-11,37,92,66,-4,22,-22,-50,-16,66,-25,-66,1,-41,7,62,-17,-33,-23,-59,-57,29,-3,-22,-40,80,-33,53,37,57,59,99,53,52,42,11,-17,-25,55,-16,-26,13,-37,-42,-110,58,8,-47,30,-9,-46,51,-10,-99,-22,-41,17,47,-97,17,-32,-43,-37,-60,-37,-65,6,-23,13,4,-3,76,22,58,30,-16,45,-10,-60,-67,17,-104,-48,-52,43,7,69,7,-42,-30,-37,-19,-54,-7,22,-45,0,16,-10,-42,-4,48,-4,-75,-25,20,-29,26,44,-38,45,-15,-12,42,15,-78,28,-14,11,28,87,15,36,12,-50,-35,-64,-24,20,-51,-44,8,-74,-5,48,-1,15,26,-57,37,-28,-8,23,26,53,-30,6,59,18,94,-35,-23,-16,-6,-57,101,-128,-42,57,39,47,18,7,43,-11,10,-12,-47,50,-3,-40,32,19,7,39,27,-19,22,16,-27,4,5,-25,18,20,49,-76,-21,-4,-56,1,-10,11,62,56,-20,9,32,12,-52,-13,-52,-22,-58,-88,-13,37,39,1,-39,75,8,60,66,8,31,-31,-19,56,67,-2,-50,-37,42,-8,-5,27,-43,-6,-56,14,-53,-29,23,-35,-82,75,66,-36,12,20,19,35,-6,27,6,-31,21,-42,-28,28,39,-16,-9,-1,-39,4,30,-128,1,64,26,13,48,-34,18,-9,16,-30,-53,-66,-92,-7,-60,22,38,-59,1,13,-2,-30,127,-32,92,-64,-4,-74,-27,-34,71,47,36,4,-26,-38,-1,10,15,-24,32,-1,-78,12,75,32,6,-6,-44,21,-19,-50,-10,30,-31,31,65,10,19,-12,16,-63,-35,-4,17,10,-17,30,-10,-3,29,12,24,34,-58,-34,-10,-52,-23,29,11,39,7,-76,12,49,28,24,-38,-46,-44,7,36,73,29,13,-30,97,46,-60,25,-36,-67,-15,-51,12,-67,-6,-39,36,41,25,122,11,75,-3,-26,54,4,-37,-74,48,-127,1,-74,68,32,54,-14,20,-107,-58,-19,-22,35,42,-8,19,24,10,-66,3,69,-42,-99,-92,-6,9,72,-10,-14,95,9,5,64,-24,-65,-32,-32,27,27,82,23,7,14,-18,-3,-32,-38,-14,-58,-14,-42,-68,72,30,-8,98,60,-59,7,-21,2,69,12,-37,-13,-28,59,11,59,-13,-14,-61,-47,-24,54,-128,-8,-16,-27,10,9,-47,40,24,53,-26,9,16,51,45,-13,26,12,-1,-35,-11,56,42,36,-22,44,54,-10,32,-5,-106,-21,90,-25,-11,-3,45,-2,42,36,35,-27,40,-13,30,22,-21,-8,50,-11,54,23,-49,28,-37,62,54,-12,-14,38,-42,11,18,-29,-31,6,-79,-33,81,-6,36,37,-24,59,40,-46,5,27,-54,7,13,-15,23,-40,33,-14,8,24,-104,17,-40,-42,11,-49,22,-28,-51,75,51,-127,111,38,-16,4,13,47,-5,52,42,41,15,-14,42,-10,-19,19,6,-19,11,34,-7,54,0,31,8,26,-18,-16,3,74,-127,-19,45,8,33,29,18,66,100,27,-6,13,8,-58,22,-52,-59,-7,-48,-12,42,26,-6,-67,33,-2,35,38,-31,6,-41,27,47,69,-47,-4,-66,43,55,-12,51,-30,8,-34,-17,-89,-47,17,-64,-56,84,16,-22,17,35,39,42,-46,22,-15,-16,25,-48,-52,39,32,-18,10,21,-27,36,6,-95,54,45,-5,16,14,-15,-37,-1,-44,18,-52,-81,43,-16,0,45,56,3,8,-42,-56,23,2,-54,21,-12,60,-41,-55,-35,-11,15,20,-33,46,44,-17,7,61,-29,-69,-10,-54,-40,-8,-105,4,-8,23,34,-77,78,-39,43,56,6,-14,-21,-1,47,108,8,-30,-17,82,-12,-33,-3,-81,25,-72,-19,-27,-79,3,-5,-59,72,39,-46,52,25,24,12,-26,83,5,9,43,-69,0,-4,63,17,-48,-26,55,-46,33,-128,22,24,-6,50,28,31,-57,51,45,-48,-76,-82,-55,-60,-103,-4,62,-50,13,-33,-4,28,123,-37,57,-88,89,-103,-65,-1,100,46,127,-46,0,8,28,5,24,-79,-6,0,-89,-84,112,-61,-20,-34,-1,38,-64,0,-33,-46,-7,-19,8,-18,56,-34,102,-43,-12,-9,68,38,-41,48,-87,3,-39,-12,-38,5,-52,-28,2,21,-30,-5,27,61,35,-30,-52,91,-11,51,30,-115,-40,32,68,78,-65,19,86,20,39,-71,-3,-28,6,-36,48,3,16,1,-18,49,64,34,54,62,-4,-15,-25,-13,59,29,-2,1,24,-6,-44,48,52,-128,0,77,-67,-34,2,29,23,94,0,26,-53,22,-44,6,-31,-66,-85,-11,-45,80,65,-41,-18,45,95,29,48,-28,-5,-31,-4,50,10,15,-41,-42,-1,43,-15,68,-6,-52,-40,-3,-95,-6,19,-62,-29,47,45,-33,-23,16,-8,67,17,12,-34,-63,16,-2,-56,72,-35,-33,84,51,-62,35,-30,33,-5,35,-27,-57,26,-21,-30,-24,39,-42,-6,-44,-75,22,-35,29,-12,-41,56,-11,-28,-44,125,-7,50,-14,20,-128,-63,36,53,5,53,-21,-55,-5,28,59,-2,-23,-10,24,-1,-36,54,49,20,6,0,7,-2,-80,39,58,-31,21,35,-19,42,-18,1,-23,5,-43,3,81,-53,24,-16,-21,71,20,-25,-4,-29,-39,29,-38,-43,15,-10,57,-15,-57,64,-28,29,3,-36,-38,-17,-8,-10,13,88,31,-55,105,67,-14,-35,-74,22,14,-43,41,6,44,8,20,24,68,58,-6,39,-38,-20,55,-22,-31,69,36,-118,9,-108,25,-2,98,62,2,12,6,-29,-18,10,22,4,-63,-38,6,-12,2,54,-3,-27,12,1,-24,-5,16,-28,13,-33,-78,7,-37,-90,50,18,1,0,41,63,33,-15,-16,13,-37,20,40,-43,-73,2,-40,-4,48,9,4,-11,-26,15,-46,10,48,-52,21,-54,24,46,49,56,-12,-32,-18,-10,-30,94,-99,-110,127,25,-7,-60,-117,-43,-101,-87,-23,0,-13,-3,-41,36,73,63,77,-25,5,53,-79,-113,-19,-28,-94,-27,58,12,-41,-53,-28,-4,-43,1,-81,-49,36,-46,67,20,-21,-67,36,35,-26,-89,32,37,-9,24,59,-68,-15,18,66,36,49,-70,40,14,22,41,98,1,4,29,10,-97,-62,-50,0,-32,-55,-40,-105,-47,-2,-3,-22,15,-59,42,5,-33,-26,125,68,-6,-4,38,-1,98,-37,-38,-11,127,-49,53,-47,-17,64,17,19,29,-74,10,-99,4,-20,-27,46,-5,-43,39,92,37,78,11,-10,47,-48,-62,-31,-29,-115,-15,52,14,-62,-18,-49,-17,-1,-30,-38,1,62,-67,16,9,13,-63,13,-28,5,-107,19,17,22,15,55,-84,16,13,95,62,44,-32,35,-4,68,58,52,-44,-16,36,-9,-53,-38,-27,9,-58,-50,-48,-89,-62,-28,-74,-7,51,-65,54,-2,-4,-7,83,127,-21,-18,36,3,50,-5,-17,1,124,-40,-1,-20,-42,25,-15,29,30,-47,52,3,68,-23,-7,33,38,22,-4,43,8,13,-19,-27,55,33,26,-22,45,15,-4,33,12,-127,-15,68,-32,1,-15,44,17,54,23,17,-23,44,-28,32,-9,-15,-35,34,-9,68,23,-35,-1,-12,51,74,17,0,37,-40,7,48,-1,-37,-17,-76,-10,66,-13,42,25,-22,29,22,-58,-11,26,-65,-20,24,8,6,-23,33,-1,13,26,-50,11,-45,-34,1,-56,30,-16,-38,86,35,-128,103,23,-42,-18,-67,-53,-39,-35,-13,-37,-5,-30,29,93,81,116,48,60,-40,-74,44,2,6,-40,28,-112,26,-91,82,4,33,29,38,-112,-83,-30,3,0,47,-20,17,-60,18,-27,-5,65,-30,-123,-13,-31,31,67,-30,26,68,79,-20,50,-29,-67,-7,-40,11,-35,103,3,25,-37,-20,-4,-1,19,-49,-35,-9,-37,-12,46,22,26,34,58,-49,-36,-29,-34,88,32,-26,-44,-52,29,56,30,30,-63,-69,39,11,1,-83,-60,127,-14,-48,2,-20,-3,-29,-16,9,4,20,40,39,51,49,-2,-25,-26,4,-3,13,-10,-9,-21,-21,-49,17,3,-12,40,0,-36,-32,-17,13,-23,13,-27,-4,-66,2,18,-10,-10,-12,-79,23,-29,26,17,-17,13,28,63,-20,43,-5,-35,19,-21,9,-24,42,-41,41,-27,-29,-12,14,13,-32,-44,-14,-24,15,-19,2,0,-24,27,-23,-25,-34,-15,40,7,63,-40,-21,12,34,-11,35,-52,-2,57,18,17,-33,-75,127,-8,-46,-71,-55,-11,-14,-70,-9,26,-17,62,39,33,34,5,-35,-59,0,32,2,-45,-6,16,16,-45,34,13,-45,-17,63,-32,-55,32,-18,-51,18,0,56,-62,-15,-6,2,35,-63,-41,36,-21,20,49,-32,28,-3,90,-22,8,-9,-43,-5,7,-16,-33,63,4,10,-30,35,-34,24,-6,-61,7,4,-40,7,13,-14,53,-4,3,-21,-37,5,-36,32,63,-15,-22,-29,10,15,15,12,-70,-28,68,31,-1,-15,-12,127,-1,5,-20,-67,50,-50,17,-42,-12,22,82,35,11,85,-6,-12,-40,-31,46,62,-38,-36,67,-1,-5,44,-3,-112,-2,51,-64,-43,-5,37,-28,39,-18,57,-69,32,0,-2,-31,-21,-73,52,-27,69,34,-50,47,10,126,59,27,26,32,-18,-28,24,-51,14,-69,-21,-33,19,-24,63,19,-74,22,47,-46,40,4,-58,2,-26,27,3,-52,14,-36,21,71,-11,-2,-64,-31,11,-53,57,-48,-21,127,57,-121,86,8,58,-1,-9,-6,-37,26,-10,-26,13,27,-17,10,-24,-6,29,-41,8,-2,-30,55,-17,-12,-7,78,-34,1,-14,56,-127,-40,40,36,2,62,-27,-27,37,6,37,-40,-32,-16,17,-42,-62,2,28,-9,22,21,-2,-32,-13,49,5,11,-1,-23,-1,40,1,37,4,-23,-15,16,54,-51,43,-36,-24,-8,-27,-61,-12,-32,-46,1,1,-8,-12,-2,34,-8,0,29,57,-21,0,20,-35,-20,30,-27,24,77,29,4,45,-3,34,-18,-15,-34,-62,22,-37,-9,-20,10,4,66,34,5,63,8,-16,-48,-23,51,30,-28,-38,53,5,-25,34,0,-100,-11,60,-33,-39,11,7,-54,29,0,62,-75,19,-4,3,8,-33,-52,67,-21,43,34,-40,36,-18,109,37,10,15,1,-5,1,8,-41,32,-27,-9,-31,42,-34,42,19,-61,23,13,-43,25,-6,-43,25,-20,6,-1,-44,17,-40,9,81,-19,-9,-49,-12,26,-20,34,-58,-12,127,50,-76,60,-5,99,-3,-21,44,39,32,7,8,56,32,-13,-39,-24,-30,-1,-80,-28,39,-40,3,-9,47,6,76,-53,13,-56,51,-73,12,0,84,45,68,-2,-6,24,15,-26,-51,-47,34,0,-85,-47,46,16,-24,-2,-24,31,-58,-26,-3,-55,-1,-25,-9,34,41,-13,49,-33,-20,19,18,17,-25,42,-20,-3,-44,-52,-29,16,-71,-18,-6,-30,-30,-2,16,11,26,0,-51,127,-47,39,19,-36,-41,40,6,77,18,18,50,25,-59,52,-18,72,4,-76,9,-44,35,-54,19,-37,-39,-47,-107,16,-2,91,-6,-37,57,-28,-19,-58,92,-25,67,-7,-38,-78,-63,-8,67,34,2,-17,-56,-13,8,42,54,6,-17,59,7,25,73,88,61,9,-58,33,-27,-114,-14,115,-49,46,55,-2,40,4,3,-48,16,-60,7,55,-61,-36,9,35,98,22,17,-37,-51,-40,9,-65,-64,30,14,49,-26,-106,86,-43,51,22,-68,-27,13,-43,16,18,119,-23,-89,127,75,-72,-4,-58,66,16,-74,39,-97,-57,40,-12,23,-66,3,40,40,-47,-35,-42,-45,-96,0,-32,13,11,26,-3,-35,-33,84,33,-42,2,59,35,-29,-34,105,90,-21,22,43,-50,5,37,42,-5,-75,91,39,-36,62,-101,56,22,23,-46,54,60,-14,-25,-54,-28,-24,69,-27,19,61,30,-77,49,21,24,47,76,50,21,-1,-75,23,-44,-9,46,-83,31,127,14,-21,-18,34,-127,31,-2,9,104,-31,-91,-61,-1,8,78,21,-42,-69,-22,-38,-25,-128,33,8,-19,-2,-32,59,12,-10,-16,-13,7,8,-53,-78,25,-16,-43,-30,-3,55,-4,-21,-13,-3,-36,60,-60,-37,5,-22,32,-13,-60,-22,-8,-1,-64,-35,-46,-4,-29,39,19,-29,34,27,-62,36,-6,-73,13,5,-25,43,84,-7,51,17,-18,-54,-9,-61,-29,-62,-45,-21,-29,-21,31,29,10,16,-54,5,-4,-15,27,31,75,-34,21,66,-27,53,-1,-25,20,-19,-7,127,-102,-33,84,-11,-8,-24,-61,34,-35,0,-28,12,6,67,32,2,68,-2,-15,-38,-31,52,32,-24,-28,63,1,-15,31,1,-104,-12,60,-32,-32,7,19,-42,30,-2,56,-68,15,-1,8,-4,-36,-50,59,-20,52,32,-39,33,-14,112,40,11,11,9,-9,-1,13,-34,20,-40,-19,-29,38,-30,50,13,-61,22,21,-51,25,-6,-51,13,-24,7,0,-40,21,-37,9,72,-10,-5,-49,-20,16,-30,36,-52,-13,127,51,-91,72,4,80,22,34,-28,39,-9,51,30,-12,44,4,16,-3,-16,-10,47,26,-35,9,-58,126,17,12,-21,36,59,18,-27,97,18,57,43,-15,-95,6,-16,-128,-23,-50,0,49,82,-65,30,64,-92,12,6,-63,2,-7,55,17,-35,-41,-23,8,51,-41,-59,-26,-17,44,12,45,-51,-30,-3,-61,22,4,24,-48,-13,58,-19,-24,30,-48,8,-23,-94,-10,1,-58,-18,-40,28,-39,23,25,33,69,22,-63,-23,26,-69,-73,-35,-45,5,74,9,-59,52,-48,36,-51,3,7,5,-36,-61,39,-8,57,-2,-52,51,20,-32,-47,101,-22,64,3,-7,-127,-54,13,5,10,-2,16,-26,9,2,53,20,17,-19,22,-30,6,9,48,19,39,-5,6,-4,-49,43,108,-3,43,69,-18,5,20,0,-45,-40,-74,7,43,-31,19,4,-16,51,41,-15,-4,-13,-68,-18,-25,-5,18,-1,49,-18,-54,69,-23,43,-27,-55,-26,-34,7,2,-7,99,23,-119,127,72,-70,6,41,25,29,33,-9,-8,18,34,-38,-64,-71,-85,-25,-79,14,50,-50,7,-16,11,-13,127,-41,68,-74,23,-75,-33,-24,97,59,77,-20,-22,-20,15,4,10,-44,33,2,-75,-21,99,19,7,-29,-37,34,-38,-59,-25,-4,-38,14,41,10,43,-25,41,-59,-24,-2,36,26,-27,32,-33,10,12,-13,7,15,-60,-29,-1,-35,-46,21,24,41,17,-62,-13,65,8,48,-10,-66,-30,6,39,83,-3,10,22,69,32,-49,-51,58,-72,-64,21,12,50,-9,11,12,-7,3,16,20,-86,-9,-6,-63,47,-37,5,66,74,-21,-76,-14,16,-26,-2,112,12,-66,10,-12,28,52,-33,105,-7,-9,24,-17,-10,-87,57,-42,24,-10,-87,9,-106,-11,66,-6,1,-1,-33,3,26,78,-30,71,-65,-86,-6,-7,-75,127,-42,19,34,26,-19,-33,7,-58,-8,-51,28,3,-5,27,16,32,29,33,-61,-95,-26,-42,-15,-1,-5,-14,127,31,-67,31,3,38,-19,-11,44,-20,5,50,57,4,-44,67,18,47,75,11,76,31,-1,54,32,-15,51,30,-128,18,-92,68,23,3,6,44,-45,9,-63,16,80,95,18,-45,31,56,-73,37,41,-9,-73,-25,4,29,29,-1,-67,36,-36,32,39,-24,-54,-22,6,83,47,8,45,-68,20,31,14,-41,3,50,-39,-48,-63,-96,58,-8,-50,92,18,-37,28,-4,38,68,-34,-38,-24,-17,32,29,15,1,0,-77,18,-31,-19,-34,-47,-59,-17,-26,-42,-94,-4,-6,23,-38,-17,36,106,98,68,68,83,-2,-79,36,34,28,-12,-12,-73,54,-87,108,-41,-10,7,69,-101,-65,-70,39,-12,38,5,33,-31,64,-36,32,98,0,-114,59,-2,61,39,-62,39,17,90,57,17,-1,-42,-32,-16,31,-68,55,31,-35,-41,27,4,-16,53,-31,40,26,-25,-8,66,-12,22,21,30,-2,-34,-14,-43,37,87,-128,7,-69,-26,78,24,6,-67,-104,103,16,-102,19,-20,79,17,-35,-59,-50,-39,-52,-120,23,19,-27,-6,-43,43,36,-12,4,-16,-7,18,-70,-80,2,4,-75,-29,-4,47,-31,-24,-17,24,-32,68,-69,-59,15,-28,46,-36,-62,-21,-6,-3,-62,-31,7,8,-27,23,35,-47,-1,40,-37,24,2,-87,45,20,-23,47,83,-20,53,15,-9,-85,-15,-63,-28,-49,-67,-30,-41,-50,13,29,-19,4,-61,22,3,-25,2,62,115,-37,28,71,-25,67,-10,-29,28,52,-23,125,-77,-45,127,10,83,10,-22,52,-59,4,-42,6,-20,-43,-78,-78,11,-47,52,25,-61,23,3,-30,-39,127,-34,101,-46,-5,-105,-54,-19,51,31,34,-1,-23,-18,-8,37,32,-14,4,3,-60,7,59,31,14,9,-27,23,-18,-54,11,82,-16,45,77,-13,19,4,21,-54,-41,-33,23,26,-28,27,-9,-12,39,29,8,11,-50,-53,-20,-33,-18,25,10,47,-8,-82,56,29,43,10,-55,-51,-35,-3,30,49,63,25,-67,115,74,-82,32,57,-29,-79,-26,-128,-35,-56,-29,-3,-31,-79,-4,68,53,121,8,-17,31,-47,-113,-37,-9,-104,41,34,-26,-18,-55,-82,-8,-9,-35,-50,-30,-10,-74,49,70,-9,-51,6,6,41,-62,7,61,-8,-11,85,-54,-4,-14,114,35,86,-4,29,-13,32,36,55,-42,-10,30,-30,-59,-76,-36,20,-21,-13,10,-82,-46,-10,-44,-25,37,-50,59,5,-30,-64,122,65,29,-5,11,-20,77,-43,9,11,90,-56,-5,-10,31,-36,-26,-5,-3,-51,40,-10,47,-38,2,20,80,61,4,55,20,-20,-52,-16,47,54,2,-24,32,41,-17,43,-19,-78,11,75,-59,-35,-24,54,-18,25,12,38,-63,43,8,8,11,-11,-55,65,-24,66,28,-64,50,-10,103,46,8,2,28,-24,-7,17,-59,0,-25,-42,-48,43,1,48,50,-54,48,45,-34,42,16,-52,15,-10,8,21,-53,13,-33,24,58,-73,2,-58,-42,37,-43,42,-55,-47,110,55,-128,97,4,56,33,52,-9,-86,12,-120,-3,-54,-33,27,-2,-55,18,83,47,96,-3,-21,47,-23,-101,-34,12,-89,31,43,-6,-67,-44,-51,-51,-18,-38,-25,-17,23,-65,50,37,14,-55,5,-28,24,-106,12,37,30,13,46,-43,11,34,127,55,74,8,12,-23,61,30,45,-56,-28,27,-17,-52,-33,-19,-10,-15,3,-25,-61,-40,-29,-58,-14,52,-46,33,5,-30,-31,118,70,23,-48,2,-10,38,-15,-6,-5,127,-29,-56,18,23,-28,31,52,-2,-77,8,-121,-9,-45,-26,16,-12,-65,5,75,28,97,9,-27,34,-36,-87,-34,24,-101,34,32,-9,-68,-36,-66,-15,-8,-27,-31,-27,14,-70,42,37,-4,-47,5,-38,23,-74,22,37,15,-1,61,-58,-2,18,110,44,72,6,24,-10,51,39,40,-53,-16,34,-21,-55,-37,-26,-1,-30,-15,-16,-64,-60,-28,-61,-27,43,-39,42,3,-22,-45,111,96,18,-22,8,-20,39,-14,0,15,127,-36,-27,15,6,-17,3,34,8,8,26,-11,-21,11,40,-52,-63,-66,-91,-24,-74,14,34,-46,11,-23,7,-18,127,-30,68,-72,16,-70,-42,-14,99,45,74,-33,-37,-27,13,20,12,-52,27,12,-52,-23,103,28,14,-29,-39,31,-31,-72,-18,0,-46,14,35,6,47,-35,32,-47,-2,-4,25,34,-34,22,-31,7,29,-10,11,12,-58,-25,15,-43,-52,19,13,40,5,-72,5,51,12,48,-14,-62,-16,-5,30,72,12,10,18,70,43,-30,13,-81,-105,-19,-49,7,-104,11,-23,6,87,73,127,11,46,-62,-74,39,-4,-9,-79,48,-116,41,-83,74,14,77,7,43,-115,-94,7,-15,-8,14,-7,34,-39,7,-20,-17,83,-51,-111,-52,-39,5,88,-34,50,95,67,-59,50,-34,-85,-20,-38,-9,-28,119,9,42,-37,-33,-2,-5,-17,-45,-48,6,-23,-1,78,41,49,57,60,-38,-43,-27,-27,89,22,-51,-27,-39,42,28,50,9,-50,-66,-38,15,50,-128,-22,111,-16,-5,51,77,-21,17,49,24,-17,27,-32,24,8,-41,26,-5,27,40,-62,-2,69,22,-87,17,-9,-13,-41,127,57,-47,16,35,-53,21,36,-28,0,-74,13,25,29,-9,10,67,14,-31,10,-34,-25,17,1,13,-79,-34,-8,-10,-7,24,-11,-3,-11,-23,28,31,-13,-50,59,-44,26,57,-22,-18,52,-2,15,51,-26,-2,-2,12,14,-46,35,0,-82,5,-5,23,6,44,16,-25,26,2,-89,-43,42,-57,-47,-26,-38,20,92,53,27,36,127,1,4,4,-14,45,-74,-20,-23,-25,24,1,-44,59,117,-25,3,48,27,-34,-63,51,64,-6,29,54,-58,68,23,-52,22,-68,-13,39,68,0,-17,84,65,57,0,4,-69,-12,48,-53,-47,-5,-51,-6,68,11,-12,-7,-64,-92,12,-7,-38,-5,79,2,90,33,59,23,59,62,-1,7,-9,-45,-40,68,-14,-24,12,-26,-69,-51,18,14,-63,49,-64,-4,8,6,-28,10,-77,85,-10,-29,17,-77,-107,19,74,-61,-66,-6,-16,-25,-37,-84,-58,6,-97,26,27,61,-12,-23,-107,51,67,33,-9,-83,30,-7,-45,69,-44,-37,0,-76,75,-86,44,127,-35,-32,-42,-28,93,-49,82,-101,21,-71,21,-64,73,-41,22,-34,-63,32,72,-36,37,-32,-6,-6,-24,99,-9,-70,10,25,7,-86,-14,-52,78,-8,-8,-2,49,45,14,59,32,-1,-23,-2,-45,-86,44,-68,15,16,-15,19,38,-49,-106,95,76,127,-11,96,-18,0,-35,-49,45,-30,-3,-31,20,-14,71,40,-21,53,-25,-38,-48,-33,37,61,-26,-35,103,30,10,16,-8,-115,-7,67,-31,-42,21,37,-48,6,2,63,-79,6,19,-5,-13,-34,-29,66,-32,63,29,-57,69,-26,127,24,-4,13,41,-25,-5,-6,-66,0,-40,-22,-50,44,-25,72,31,-85,59,51,-34,69,2,-54,36,-35,-1,18,-66,24,-45,3,70,-37,5,-56,-43,19,-60,52,-54,-12,110,78,-117,105,27,85,14,35,42,16,39,27,76,-17,-51,58,23,11,30,9,14,13,19,11,5,54,23,6,-27,33,5,34,7,-23,8,14,-63,4,-47,58,76,43,5,-17,28,55,-30,1,-27,12,-45,-60,-11,57,25,-34,13,62,-1,53,36,-12,44,-61,-34,59,4,-34,-20,-55,15,-5,43,26,12,2,-20,46,-27,0,68,-38,-64,73,49,-3,-8,-2,27,41,-37,-49,18,-47,-19,3,-59,23,33,-53,-26,21,-90,25,24,-128,5,7,84,3,59,-10,67,29,-19,63,0,-14,22,44,-30,13,39,-16,36,9,47,1,11,-60,-21,-3,58,-106,22,-3,8,29,-9,25,51,89,-15,-40,-29,7,-22,2,-98,-29,-52,-14,-24,45,13,18,-70,35,2,24,53,-12,-4,16,11,66,66,-19,-50,-35,35,8,-10,41,-19,15,-79,-54,-69,-32,-36,-49,-76,31,37,-35,30,2,37,41,-42,127,-44,-17,37,-18,-42,53,11,17,55,15,-8,20,-66,-15,32,1,-113,-25,-20,-56,-106,-13,-5,-40,48,-12,36,27,-13,-40,-39,-25,-3,23,-128,-1,66,12,36,11,-1,-6,-13,-10,-64,-73,41,-4,-65,-53,-32,90,-39,-38,27,-54,4,-21,-49,-15,-27,5,36,-33,78,28,109,-24,17,27,22,1,-40,-36,-59,65,-66,73,-24,-35,-20,39,-10,-94,10,62,25,79,9,2,55,-27,42,-2,-45,2,-60,-2,87,-9,23,-45,-1,-23,8,18,-36,9,8,36,1,-13,51,78,38,57,-8,-87,9,-112,-12,-54,-36,30,0,-60,27,83,39,106,0,-22,54,-32,-98,-31,11,-92,26,45,6,-87,-50,-48,-43,-23,-32,-29,-11,40,-59,54,44,8,-72,7,-30,6,-100,2,29,32,20,48,-62,13,31,127,62,64,5,4,-12,61,44,45,-57,-38,40,-6,-60,-31,-29,-12,-25,-1,-37,-77,-36,-40,-61,1,56,-48,39,17,-22,-24,119,68,19,-42,12,-23,34,-7,2,-3,127,-26,-47,15,20,-42,-7,-18,52,6,55,15,35,32,9,22,5,-4,5,35,-55,-18,21,-28,39,13,46,9,56,-37,-19,-17,68,-128,9,34,26,21,39,7,21,76,6,-16,-54,-5,-8,2,-82,-55,-14,0,-35,33,18,-5,-56,12,29,-10,23,-25,-5,4,25,30,52,-23,-40,-24,29,40,-21,63,-25,-13,-50,-46,-81,-10,-31,-51,-41,17,7,-23,4,21,24,44,-32,96,-50,-11,25,-25,-56,61,-7,20,61,29,-3,39,-52,29,1,19,38,90,-4,51,45,19,-8,16,-45,10,-29,-78,8,-11,45,25,-55,21,72,20,-46,48,30,-41,-43,113,30,-40,11,44,-37,26,48,-55,12,-64,37,11,43,-20,6,68,72,-40,9,-41,-51,-4,24,4,-100,-37,-33,-11,35,-7,-11,-11,-13,-58,42,7,2,-42,70,-31,10,58,4,13,64,27,27,36,-4,6,-10,34,11,-18,35,-21,-97,-48,17,29,-11,7,-15,-28,59,12,-128,-18,11,-28,14,-89,46,40,-4,-14,17,-11,-2,-1,-59,64,-7,-40,72,24,19,49,31,0,40,-21,-40,17,-40,-36,-21,31,66,-75,-34,3,-55,-13,-13,-7,70,82,-19,7,51,12,-88,3,-30,-49,-78,-100,1,32,55,12,-66,95,-3,59,82,0,-17,-36,-19,77,100,28,-40,-52,67,3,-25,8,-70,9,-80,-7,-79,-77,24,-39,-79,107,74,-60,37,16,24,48,-5,35,-4,-26,45,-43,-11,22,36,-35,-12,-23,-2,-31,10,-128,-3,40,-16,-86,16,-38,0,-39,19,-20,-1,-34,-41,50,11,69,-23,-31,71,-23,-24,-49,73,-33,23,29,1,-121,-60,28,27,7,20,-17,-40,28,5,52,15,-1,-40,42,18,-23,6,60,27,23,3,11,-28,-69,31,88,-12,30,15,-14,40,17,13,-3,12,-66,15,78,-67,-11,-8,-1,57,10,-41,-60,-29,-48,3,-16,-34,-6,11,41,-20,-54,85,-29,29,-9,-21,-20,4,-14,-22,-14,127,1,-69,84,56,-18,-74,-54,32,-12,-1,78,62,17,60,-35,15,66,-74,-24,-1,-37,-36,11,7,5,127,-22,-9,51,-48,-14,-43,22,26,52,71,38,6,6,-36,-7,57,-36,-48,23,43,45,61,12,74,113,12,-17,-49,-26,8,-106,-19,-34,-92,-39,-17,31,56,-30,-56,-48,89,-13,-49,67,12,-19,90,30,92,-23,17,22,-16,-3,61,-50,-99,55,-3,-6,-12,-22,-27,-76,-15,34,-38,57,-3,-21,-45,-14,49,9,-25,67,-41,104,-32,8,28,23,8,27,30,18,57,-59,-49,-7,-112,-38,-63,-27,15,-28,-24,3,65,-36,93,15,45,-69,-34,6,12,0,102,50,35,12,-45,-65,28,-15,-15,-17,76,14,-15,21,127,85,19,-30,-68,3,26,-107,-28,-29,-85,-6,38,29,39,-54,-38,-66,29,12,-28,31,13,11,36,12,75,0,50,59,-47,2,44,-81,-89,60,-10,12,-1,-65,-30,-9,12,50,-48,7,-17,-15,-5,51,6,23,-4,81,3,40,12,16,-42,-104,6,-58,-32,-43,-1,7,26,-24,28,67,48,63,-32,-7,67,-33,-77,-22,15,-43,-13,52,15,-105,-64,35,-29,-31,1,-31,-29,54,-11,61,10,6,-68,35,29,-37,-67,20,24,32,39,14,-34,-12,55,85,36,29,-19,-15,17,38,27,52,-1,-54,15,50,-72,-16,-26,-22,7,-1,-58,-71,-9,-34,-8,11,19,-37,12,20,-27,-10,104,-11,12,-30,4,-8,35,-8,-29,-37,127,-12,-41,24,35,1,39,-9,-55,-6,-49,-39,-106,12,-26,-7,-20,-60,62,3,25,17,15,13,-6,-69,-96,41,-47,-68,1,5,37,36,-33,-58,-19,-32,25,-65,1,5,-48,22,36,-42,-46,-20,-14,-26,-42,-82,3,-46,31,51,-53,70,-21,-13,47,13,-60,14,-17,0,61,70,-19,45,52,-50,-39,-32,-65,-7,-81,-39,-8,-53,-5,35,-13,29,53,-54,43,-6,1,19,19,80,-18,17,68,-41,58,-13,19,22,-45,-43,127,-122,1,-9,6,-27,-31,-27,-69,-33,-55,4,-16,3,-9,4,62,15,73,32,-13,53,-21,-67,-48,14,-125,-46,-56,42,-21,109,15,-58,-21,-20,-40,-52,-5,-3,-47,-21,24,-9,-32,3,61,24,-60,-7,24,-40,0,53,-38,27,-42,-18,18,16,-87,38,-10,8,19,80,35,40,7,-54,-23,-82,-13,40,-44,-50,25,-75,-4,62,3,-3,9,-49,47,-46,-5,5,20,40,-23,18,53,34,108,-47,-19,-15,-13,-78,102,-128,-54,66,16,6,-104,-97,-74,-59,-82,-59,-16,-9,25,-2,39,31,109,65,-52,36,32,-58,-109,-1,-75,-7,-33,69,-45,55,-49,-18,-59,-56,-38,-57,-44,-16,-32,66,65,3,-67,22,112,10,-63,21,45,-19,28,19,14,-6,5,59,4,51,-49,-6,-16,3,-8,95,46,1,-9,-6,-55,-90,-19,5,31,5,19,-78,31,21,29,0,3,-27,10,2,-54,-28,124,-85,33,-15,8,16,127,-77,-32,-70,59,-55,12,-61,45,11,14,16,33,-5,70,34,47,3,-35,67,43,10,46,29,-8,-5,12,-19,50,34,18,13,20,11,-19,31,70,-128,-9,67,-70,-9,4,47,73,96,15,11,-11,27,-53,6,-49,-55,-65,-58,-40,73,60,-48,-22,75,56,45,60,-30,19,-57,-10,65,42,-28,-43,-68,20,43,8,66,-22,-25,-44,21,-101,-16,46,-76,-65,93,57,-20,-20,23,20,70,-35,-7,-8,-58,7,-32,-77,62,7,-36,20,44,-81,45,14,-89,14,19,57,1,68,-7,45,20,-7,31,-5,-27,-4,27,-48,12,44,-30,38,10,27,1,65,-49,9,-10,59,-127,-6,9,18,26,31,10,34,75,2,-7,-21,-1,-18,3,-94,-40,-16,-10,-25,37,6,7,-62,18,16,34,31,-5,15,-7,25,42,66,-33,-55,-40,38,34,-17,49,-27,-5,-51,-25,-68,-22,-26,-56,-57,28,24,-23,18,28,27,19,-22,98,-25,-12,21,-36,-59,51,14,28,46,26,-26,49,-20,-33,12,59,-16,-47,33,-49,-12,-40,19,-25,-18,-54,-67,25,-28,42,-5,-53,39,0,-48,-44,127,-26,80,-26,2,-110,-56,6,31,3,36,-5,-39,-7,-1,59,17,-17,1,14,-33,-11,36,40,24,13,-11,13,1,-55,34,72,-12,47,60,-10,18,-9,9,-25,-32,-38,8,40,-42,28,-9,-23,50,37,-8,2,-37,-52,4,-36,-24,18,-5,51,-25,-67,71,-8,36,-6,-46,-39,-21,3,5,23,77,21,-68,107,72,-49,73,36,-77,-1,-31,-33,-111,-9,-33,0,-28,-83,52,-12,11,47,26,-4,0,-56,-128,34,-17,-60,29,-2,51,6,-68,-49,-50,-26,31,-73,13,5,-38,48,64,-49,-60,-24,-21,-36,-30,-115,5,-28,51,35,-26,86,-11,26,58,21,-17,-19,-30,15,77,63,-36,11,54,-42,-34,-16,-91,-20,-73,4,-14,-54,18,18,-18,54,55,-49,33,17,-1,11,32,50,22,2,52,-70,39,-17,40,18,-74,-36,79,-99,66,-85,-12,7,78,89,-5,57,93,20,-13,29,-33,33,-10,-61,14,-15,39,35,-64,17,99,25,-81,35,-1,-20,-46,127,56,-38,17,50,-64,39,61,-32,18,-93,32,38,34,-4,6,77,42,-30,15,-28,-49,9,11,5,-100,-35,-24,-19,22,9,-15,1,-13,-64,36,-1,-4,-42,82,-37,44,75,-3,-5,59,13,27,45,-25,10,-21,29,17,-40,47,1,-108,-29,6,27,-13,35,-7,-24,44,-6,-106,-29,5,-26,-28,-73,-14,-29,-14,-87,9,-36,8,-29,8,18,65,43,29,77,38,9,-48,-6,48,6,-17,-34,-8,-14,-54,52,-2,-65,-3,48,-39,-37,-23,-1,-40,39,-12,36,-53,27,-26,27,31,-14,-73,66,-1,44,26,-27,0,-12,80,48,21,6,-32,-3,-2,25,-17,52,-10,-22,-23,28,-38,11,21,-29,13,-15,-43,-32,-6,-15,6,-13,1,-16,-23,4,-35,15,77,-6,-11,-44,-3,34,17,11,-65,-37,127,18,-50,26,-29,100,49,57,-13,13,-1,-20,-27,-14,-33,8,-44,-75,14,-17,-2,47,54,-12,-1,-27,-56,21,4,-44,45,-10,35,-14,-42,-46,-12,8,9,-30,32,12,-17,18,75,-24,-45,-10,-39,-15,2,-85,10,-11,13,33,-40,56,-40,44,31,17,8,-24,-16,31,70,7,-32,-16,61,-22,-16,-3,-62,16,-43,6,-4,-45,3,-7,-48,47,32,-32,38,28,24,-8,0,47,20,8,19,-59,-3,-8,64,21,-52,-24,26,-29,51,-128,3,45,-16,-63,45,-4,23,-39,-5,20,36,-13,-4,33,30,40,-17,-28,69,15,-22,-25,52,7,13,37,24,-128,-56,65,-35,-19,1,10,4,57,20,51,17,27,-55,31,11,-23,-33,4,3,52,39,-19,-8,-2,46,88,29,5,23,-54,10,40,20,-15,-10,-83,14,71,-31,16,-11,-22,33,32,-60,-36,30,-58,-16,50,11,2,-14,54,-3,-10,51,-69,30,-43,-27,-22,-30,16,-7,-37,78,29,-106,83,65,-78,-28,-40,12,74,-25,-6,35,0,1,-14,8,26,1,-36,23,-24,24,8,-58,27,4,34,-96,23,4,9,-38,127,52,-55,-25,6,-52,15,42,-39,-19,-72,49,22,28,-30,66,43,15,-53,23,-15,-44,20,56,22,-49,-73,-20,-13,-14,0,-35,-14,-30,-1,56,48,-7,-55,55,-55,35,26,-27,23,69,50,72,77,24,0,19,51,23,-46,-11,25,-24,-48,11,19,-5,27,-5,-39,15,11,-105,-8,29,-88,-7,6,8,6,47,-30,18,-50,13,14,-8,35,-17,-29,24,53,3,40,27,-9,27,-29,-8,-8,-8,-87,-20,12,26,-51,6,-35,15,17,-13,-21,8,56,-39,-14,-7,1,-33,9,-50,-10,-56,5,10,11,2,48,-78,8,-9,33,39,20,-29,35,11,46,66,21,-38,-5,41,-7,-39,-14,-23,18,-63,-58,-40,-60,-51,-18,-59,-4,27,-49,51,-5,11,4,19,127,-33,0,36,-13,22,9,-1,25,76,-27,26,-18,-66,22,-13,-46,58,69,4,29,-18,85,52,-45,-61,-21,-52,-41,-98,-60,41,-28,-25,-26,82,11,69,-44,0,-96,38,-11,34,-15,127,60,89,-25,-17,-15,27,-50,-55,-63,64,-8,-71,-43,100,18,-24,-46,-46,28,-61,-43,-33,-123,-31,-44,-32,56,59,-47,35,-34,8,54,6,14,-13,21,-24,20,-34,-70,1,33,-89,13,17,-47,-59,7,25,0,31,-9,-88,127,-49,74,33,-27,-20,23,8,95,-27,20,119,-3,-81,83,57,41,-52,11,-49,-6,-63,-24,-59,8,-54,-83,50,-34,53,62,44,30,-17,-68,-79,39,-98,-50,23,12,20,81,-53,-65,-36,-7,-10,-61,30,2,-37,15,113,-20,-82,-13,31,5,-8,-107,38,-50,17,62,-48,64,-87,33,37,18,-33,-21,-24,28,80,44,11,7,66,-54,-17,-63,-77,38,-53,-18,15,-85,23,31,-39,73,42,-54,60,12,18,-8,-1,19,26,17,58,-54,71,-54,64,-13,-101,-70,93,-116,51,-128,71,20,-38,3,-9,-57,-86,13,-48,23,-7,-60,92,18,-20,11,35,-7,-1,-21,-109,35,-29,-70,7,4,62,-23,-32,-48,-63,-41,16,-40,33,41,-49,15,29,-44,-46,-31,-61,-47,-81,-128,-7,-8,62,32,-46,108,26,7,98,11,-22,-12,-48,36,86,68,-70,27,54,-64,-28,14,-94,-26,-106,1,-36,-39,14,0,-50,61,92,-63,20,7,18,45,14,108,-3,-12,62,-57,2,12,37,24,-49,-16,77,-98,16,-61,-36,3,16,-64,35,-7,51,-24,8,19,53,49,-13,60,15,2,-39,-22,56,37,29,-33,43,15,-17,39,-15,-102,-2,70,-15,-12,-12,35,-20,37,20,27,-49,38,-6,30,10,-9,-30,76,-6,55,11,-35,19,-37,76,58,1,-3,23,-20,6,22,-33,-11,-6,-56,-35,66,-14,28,40,-25,48,20,-45,7,0,-50,5,-14,-9,8,-32,19,-26,1,49,-51,7,-44,-37,27,-35,26,-48,-33,127,37,-119,103,3,46,-6,-56,11,57,-6,21,-58,65,41,-47,-31,-14,-21,-34,-80,-60,19,-21,-25,-29,33,23,40,-32,-4,-69,37,3,13,-4,82,29,85,-32,-21,-13,22,-19,-50,-69,48,-18,-40,-55,71,-4,-21,-48,-13,18,-34,-14,-9,-115,-18,-33,-40,39,32,-60,30,3,7,70,8,6,-14,30,-24,-5,-40,-52,-11,37,-62,24,33,-22,-40,-2,7,2,20,4,-61,93,-43,59,36,-30,-6,21,-5,76,-38,19,127,-35,-64,96,60,34,-43,1,-13,-35,-104,9,-18,-12,-60,-117,34,-14,-12,49,45,-1,8,-77,-101,23,18,-90,36,-24,63,-29,-74,-72,9,-4,53,-80,9,16,-46,34,66,-57,-61,-13,-50,-52,-5,-98,7,-45,22,68,-85,54,-34,20,51,27,-37,13,3,16,110,44,-39,23,82,-33,-62,-20,-106,9,-77,-44,-17,-73,-32,-2,-32,32,32,-62,55,26,15,-6,14,127,4,40,63,-85,44,-11,50,52,-38,-38,119,-87,31,-72,-41,-38,52,-51,0,-28,20,30,37,-3,-28,4,-27,47,-8,36,6,-1,33,-65,61,-25,-1,-87,-45,10,6,-47,11,-21,99,26,9,-41,-26,39,-11,-30,-44,-14,-9,31,-22,-13,-8,103,22,-7,-39,56,-99,-78,-27,-3,-6,1,-51,77,59,7,38,19,21,2,8,32,-55,-31,3,51,-21,-96,-29,-75,-98,1,-9,-59,-42,-29,53,-16,7,-28,20,124,-45,34,20,16,52,-13,-26,29,127,-31,59,4,-95,116,10,-11,-62,-49,28,-18,-59,-7,23,-23,46,-4,-2,32,-36,-28,-39,-38,50,15,-50,-16,101,3,5,5,42,-128,-41,72,-16,-40,64,-6,-51,21,7,76,-58,-24,-2,-3,-13,-78,-14,22,-25,39,42,-49,27,-7,113,2,13,-1,3,-23,11,-14,-10,22,-38,3,-15,50,-46,65,-21,-79,18,20,-57,35,-1,-49,36,-12,7,1,-44,44,-29,12,67,-3,-7,-32,-7,-23,-33,43,-37,2,79,59,-43,55,29,63,20,27,38,85,47,48,61,1,-42,41,5,-1,7,-39,-26,-34,30,-4,-37,72,39,25,13,57,40,-17,11,7,24,4,-46,13,-19,68,71,-5,16,-30,14,26,16,-34,-52,22,9,-80,-32,29,15,-42,48,69,-13,-7,17,-26,67,-55,-38,16,-8,-64,-43,-23,9,-26,69,53,16,-9,-18,55,7,58,54,-15,-39,56,46,24,-31,1,36,44,-85,-40,14,-23,-20,-10,-91,41,54,-8,-110,33,-64,20,41,-128,-11,3,47,28,29,-14,1,40,31,-30,-55,-40,-66,-2,-84,-8,46,-46,0,-15,40,-6,103,-66,34,-72,35,-69,2,-17,107,57,67,-7,-24,0,2,-14,-39,-53,46,2,-90,-28,67,39,-8,-16,-41,43,-51,-57,-9,-36,-28,-5,8,40,43,-22,40,-35,-22,22,24,22,-29,32,-17,4,-24,-42,-11,19,-84,-25,-7,-51,-40,4,27,19,18,-40,-31,127,-26,48,2,-40,-35,25,11,85,28,10,49,50,-37,42,42,48,-26,-18,-13,-15,-37,-26,-39,9,-40,-70,17,-11,21,68,37,4,14,-51,-61,22,-16,-43,25,9,27,-17,-60,-33,-18,8,2,-41,27,22,-19,19,84,-9,-70,14,-10,-21,-11,-73,24,-15,19,31,-56,35,-54,55,37,20,-5,-28,-10,38,75,13,0,-27,59,-7,-37,-33,-65,24,-34,-3,-12,-73,10,-13,-42,63,20,-44,46,27,25,-9,14,17,23,12,27,-56,27,-25,47,-10,-36,-37,29,-35,56,-128,-29,-76,-68,-67,-31,27,-46,-16,26,-10,95,85,57,21,70,-53,-88,35,30,15,-13,-12,-48,76,-82,69,5,-5,-4,77,-69,-65,-1,-5,-35,27,33,51,-57,19,-21,23,100,-45,-55,38,-21,22,50,-62,55,-2,88,-29,-12,-28,-53,-25,-8,-25,-61,71,48,-5,-56,43,-11,4,32,-50,38,22,-37,4,54,-1,70,19,-13,-3,-53,-18,-46,54,53,-113,-16,-39,0,54,20,7,-88,-78,54,26,-27,-28,-6,127,-16,-2,-128,-23,-30,-33,-100,-23,41,-29,-3,-5,-22,-12,63,42,-19,14,-1,-44,-39,-36,-4,27,89,-28,-39,87,-59,34,-38,-21,-7,-14,-49,-65,-30,18,27,-24,-25,43,42,47,-21,13,-12,17,54,-26,97,-4,-17,-13,23,-21,4,-32,-24,-17,-72,43,32,7,-64,-8,10,18,40,-50,87,66,51,19,8,34,-18,-59,29,69,-7,-26,-29,-26,49,-69,-2,18,-71,37,-1,-4,-120,-10,-55,-5,-12,-21,63,41,12,16,-78,-102,-38,-76,-71,-52,18,-32,-8,-40,-5,46,44,74,-41,-5,51,-48,-98,-31,6,-51,2,30,-9,-38,-53,-17,-1,-30,15,-52,-60,7,-34,62,20,-20,-45,32,42,-14,-29,43,34,-7,2,48,-23,-36,22,65,11,51,-32,13,13,-2,16,62,18,-6,10,18,-84,-49,-28,-6,24,-16,-13,-66,-38,-2,18,-23,-10,-29,21,17,-48,-41,127,2,18,-5,4,-9,76,-37,-28,-5,110,-32,17,-6,29,30,-46,-57,4,38,-39,75,16,32,18,-15,5,71,23,-31,39,-53,-22,56,-43,-13,85,13,-106,50,-81,2,-21,127,57,30,20,6,-28,1,4,-4,50,-61,-16,10,32,25,74,18,18,17,-14,-28,-22,-23,22,-19,-39,-76,-45,-44,-44,8,10,-36,-34,3,85,25,-42,4,35,-30,43,45,24,-25,26,-1,14,56,47,-4,-42,26,-13,-52,17,30,-72,-53,-12,25,16,56,40,-31,-23,-38,-58,-11,49,-51,-53,93,10,-51,6,17,-6,7,-51,51,-1,6,-1,-18,48,7,-50,-31,21,-2,10,-31,-4,35,6,-58,-40,-23,79,-45,9,-4,34,10,56,-27,11,56,-6,-8,-44,-45,-8,-17,-51,-69,-18,-35,-28,-14,18,22,-72,42,9,-72,40,-28,-65,25,18,2,64,28,-31,30,35,0,-31,36,-54,-8,-90,-74,-57,-21,-35,-4,-11,15,22,-52,20,-3,22,47,-34,127,-61,22,72,-32,7,43,-7,37,-6,7,113,-61,-81,70,28,-40,-61,-25,-51,-30,-116,20,-9,-4,9,-18,78,19,19,-6,-16,27,5,-59,-88,33,-63,-49,-41,17,49,23,-14,-21,-33,-46,34,-64,-12,20,-37,23,-4,-44,-37,-14,21,-52,-63,-54,-5,-21,49,22,-36,64,21,-47,46,-12,-88,18,-5,1,49,98,-6,52,22,-36,-50,-23,-56,-16,-74,-43,-23,-50,-10,37,12,34,38,-68,12,-16,-11,40,25,76,-39,6,74,-19,65,-7,-25,-1,-20,-22,127,-128,-39,78,65,56,-34,13,5,-33,-88,9,-28,-6,-69,-123,36,-22,-31,52,62,-19,7,-63,-104,24,38,-90,52,-30,83,-57,-84,-57,15,12,57,-64,21,35,-29,34,79,-61,-70,-11,-75,-67,9,-117,8,-29,34,57,-88,63,-42,33,51,22,-13,-9,13,34,127,21,-50,-2,89,-23,-61,6,-114,7,-82,-23,-28,-75,-20,-11,-53,65,31,-63,54,45,22,-5,0,127,3,31,57,-95,14,-8,70,45,-59,-25,95,-63,52,-121,-8,-37,41,-9,-38,-20,26,14,-17,47,17,42,72,32,61,10,-10,42,-14,-16,21,11,-127,-37,-81,41,-16,75,57,-40,-35,-7,-82,0,22,27,-37,-52,-17,28,-16,-9,33,32,-87,10,6,0,2,28,-41,30,-22,-5,37,3,-65,41,-18,40,4,51,14,18,-5,-43,15,-52,22,41,-60,-53,7,-47,-9,37,-38,2,32,-41,26,-47,0,40,-9,53,-36,-11,48,54,57,-14,-33,-16,31,-43,44,-82,-88,72,2,17,61,9,63,12,51,24,-6,31,-4,-21,-4,20,-49,7,35,-27,34,19,41,-3,65,-35,2,-15,64,-127,-2,24,14,32,27,22,41,75,10,-11,-20,0,-12,9,-86,-43,-8,-19,-29,41,11,-6,-56,19,13,23,29,-21,21,-10,25,42,56,-39,-45,-39,32,37,-11,55,-24,-2,-47,-22,-72,-16,-19,-60,-56,33,20,-17,11,28,28,31,-38,78,-26,-17,14,-42,-66,51,14,25,42,27,-31,56,-18,-41,35,54,3,7,14,-12,11,-19,-32,24,-25,-45,5,-9,10,35,31,-8,12,-4,-34,0,3,-13,36,13,19,-30,-39,-23,-28,4,-11,-2,38,21,-12,9,62,4,-44,1,-22,-7,-11,-63,9,12,20,9,-25,42,-29,56,34,15,24,-29,-12,40,49,-10,-18,-38,38,-7,-5,-7,-33,11,-12,18,-15,-36,14,-20,-46,52,33,-17,27,20,20,-1,3,2,25,-14,6,-39,-18,1,50,-7,-34,-9,-18,9,49,-128,-13,-92,-91,25,-14,70,-96,41,27,-30,58,46,45,-26,-25,-109,-47,12,7,15,-1,39,14,70,-54,-7,51,-10,2,93,-19,-40,81,-10,-32,13,40,36,-77,-38,24,-7,40,-95,12,-18,-48,1,53,-65,48,19,74,-119,-8,-57,-59,-20,14,-53,-25,43,13,47,-31,36,-11,54,-10,-69,-4,5,-38,55,29,9,83,16,-10,2,-64,2,-9,72,-28,-44,-48,-2,23,-9,-17,42,-56,-9,-38,54,61,-43,-19,127,29,36,85,39,70,20,98,14,-70,109,12,13,83,19,11,12,34,4,10,48,36,25,-76,-3,-17,34,51,-52,36,5,-79,4,-64,51,123,92,-9,-45,6,58,-50,-10,-68,5,-108,-104,-44,74,52,-10,-48,123,-4,38,83,-15,17,-33,-40,111,62,-24,-54,-50,37,-32,41,40,-16,15,-101,-6,-67,-32,47,-32,-126,109,102,-41,15,-17,48,90,-66,56,-27,-53,35,-13,-69,50,40,-43,-29,13,-65,-17,-35,-128,-13,-77,14,49,-47,40,-3,46,-20,5,26,92,51,-23,33,-69,-28,25,-50,-11,33,15,-74,84,-63,5,-55,127,65,3,-67,-42,-49,43,19,-45,-25,-23,-30,31,52,-48,58,32,-26,9,-39,-35,-10,-45,42,10,9,-109,-6,-2,-35,32,-39,-24,-95,35,1,55,-42,-72,95,-15,54,6,3,-16,51,54,52,58,27,14,-11,23,-18,-63,-26,53,-42,-48,-4,-8,24,61,34,-37,-57,-56,-72,-9,22,-65,-55,71,21,11,-34,-101,-18,-100,-47,-33,-15,10,11,-34,37,77,58,91,-19,-1,55,-54,-97,-19,-25,-88,-19,57,7,-51,-45,-28,-27,-35,-17,-51,-26,38,-54,51,17,-2,-72,23,19,-9,-97,22,32,8,26,50,-60,4,26,82,46,52,-47,26,3,45,42,77,-15,-14,25,1,-79,-47,-42,1,-29,-38,-46,-93,-40,-16,-31,-8,33,-71,38,4,-26,-14,118,62,-1,-18,31,-4,71,-22,-31,-18,127,-37,11,-21,-7,39,28,-22,1,13,-18,0,-10,19,-53,60,33,29,120,28,51,-5,4,37,-14,-4,-27,36,-128,-7,-67,48,27,43,33,-5,-85,-34,-48,0,65,48,-23,-27,0,24,-46,-23,14,-8,-116,-89,-29,21,51,-4,-20,109,4,-3,73,-17,-49,-5,-46,46,25,60,-15,17,18,-50,22,-10,-21,2,-92,-19,-39,-38,43,23,-44,76,74,-53,2,-37,17,80,-30,34,-36,-28,61,20,20,21,-5,-46,-41,-17,42,-115,-60,-8,3,-58,-54,-47,-64,-42,-77,7,-7,0,23,18,73,31,58,9,-39,46,-3,-57,-68,16,-104,-37,-65,54,-2,67,13,-24,-34,-47,-13,-56,-27,7,-41,11,-12,-17,-25,-4,69,-7,-81,0,16,-23,20,29,-19,30,13,-34,27,6,-97,40,-9,-1,8,108,23,48,-7,-41,-37,-53,-11,5,-46,-46,4,-55,-10,48,26,-7,23,-52,25,-35,-24,23,46,40,-31,7,59,29,99,-31,-46,-20,21,-43,98,-128,-64,116,-27,15,110,87,9,57,127,21,-16,31,-40,39,-37,-53,-1,-10,44,20,-54,34,122,6,-55,33,6,-34,-51,96,71,-36,39,71,-73,52,58,-26,17,-104,21,42,46,-9,-16,84,52,0,16,-17,-66,8,0,-16,-101,-21,-37,-15,29,11,-4,12,-20,-79,37,-13,-7,-31,89,-31,55,69,9,-11,55,22,5,29,-38,-7,-33,42,23,-37,43,-2,-110,-16,-1,28,-25,40,-28,-14,45,8,-76,-24,-16,12,-35,-69,16,20,18,7,44,-9,-5,20,16,-12,-26,-46,-33,10,-71,8,33,-45,27,1,1,0,106,-48,36,-36,57,-127,-35,12,50,23,66,-14,-4,39,7,17,-19,-29,-4,8,-85,-45,31,-9,-13,10,7,13,-48,-9,21,13,12,1,20,-10,29,14,59,-26,-48,-18,31,35,-37,53,-44,-12,-31,-9,-46,-8,-42,-50,-20,0,-1,-2,8,41,10,-10,-7,87,-14,6,5,-56,-50,42,20,54,31,21,0,51,16,-22,23,64,32,-39,58,-46,46,-32,-21,45,-1,-52,-9,46,5,75,30,-32,59,1,-16,-29,55,-57,37,20,28,-128,-37,-13,-7,18,-14,6,43,63,-19,21,29,21,-57,15,-63,-14,-37,-6,2,55,22,21,-59,10,12,105,47,26,38,-26,6,68,56,-27,-59,-77,38,15,-21,11,-20,7,-19,6,-57,-53,-13,-74,-73,31,37,-21,25,33,12,-16,32,38,17,-35,-8,-39,-37,25,31,-9,76,9,-82,80,37,-106,11,-84,-128,27,-66,65,-118,13,0,-22,67,62,95,-47,37,-78,-66,51,-32,7,-48,67,-87,93,-61,37,24,100,-9,66,-87,-78,45,-22,1,-11,28,42,-17,-16,-10,-16,115,-60,-20,-74,-30,-23,79,-60,70,80,41,-96,9,-55,-71,-51,-22,-54,-36,92,47,43,-27,-7,9,8,-28,-52,-14,39,-4,18,96,59,89,72,20,-10,-60,-27,-13,87,-9,-126,-10,-18,36,2,40,-3,-31,-63,-116,10,65,-122,18,64,-19,-58,3,-16,-47,-34,-28,31,8,-1,-18,13,49,28,37,14,-5,32,-5,-71,2,16,-104,-73,-76,29,4,65,41,-54,31,-1,-13,-48,-6,24,-39,-37,-20,-13,-16,6,24,9,-54,28,22,-44,-20,54,-63,-2,-37,-44,19,-3,-105,74,16,8,37,68,35,48,5,-35,-25,-73,2,50,-57,-94,9,-74,-49,46,-5,-28,-9,-43,54,-48,4,6,4,97,-50,35,60,38,98,-44,-25,13,32,-57,126,-117,-107,127,2,21,43,13,74,54,98,-12,-47,76,62,33,52,15,20,-8,3,-1,31,60,47,12,-36,45,-36,42,36,-83,3,79,-83,-10,-42,66,84,75,30,-8,4,62,-48,-3,-22,-18,-56,-49,-34,82,44,-69,7,76,44,63,42,-28,33,-65,-17,79,11,-45,-26,-78,12,35,21,48,9,-6,-35,34,-68,-12,81,-52,-61,92,57,-9,-34,7,32,73,-47,-65,10,-64,-5,1,-69,55,14,-70,-4,39,-128,50,13,-118,6,24,63,103,21,54,79,15,-25,37,-28,8,-2,-58,-5,-14,46,26,-54,34,79,32,-47,37,17,-28,-18,84,45,-28,-5,39,-44,45,73,-16,19,-72,37,33,20,-23,-30,56,35,-64,-11,-14,-22,-6,14,43,-79,-23,0,-21,40,-19,-28,9,0,-64,6,-4,11,-38,77,-3,15,46,-21,18,39,20,42,21,-34,35,10,23,9,-21,55,18,-114,-19,14,9,-8,4,-40,-5,69,-2,-128,-5,-14,-20,1,-118,27,33,-39,-93,-7,-101,-39,-44,-19,15,11,-51,24,81,47,96,-10,-11,60,-44,-98,-27,4,-85,7,43,5,-79,-54,-25,-27,-27,-10,-42,-27,34,-49,57,27,0,-71,22,5,-15,-87,12,36,14,27,48,-57,4,30,107,49,57,-23,12,-2,47,45,63,-31,-31,32,8,-74,-41,-43,-6,-22,-14,-49,-88,-32,-27,-37,-1,40,-56,36,13,-27,-18,120,51,9,-27,17,-13,53,-17,-24,-18,127,-26,-18,6,18,-5,18,16,45,19,17,-29,4,24,-9,5,-45,-54,0,4,-22,31,50,-12,4,-32,11,4,16,-78,16,-28,34,-38,-12,-46,49,30,12,-27,16,32,-29,-25,15,-20,-14,-2,-66,-16,6,-22,0,-18,-9,48,-81,15,-38,10,22,12,-8,19,11,27,71,-11,-29,-8,44,-6,-32,-7,-38,33,-50,-50,-19,-43,-50,-11,-49,6,18,-33,44,10,13,-15,-23,127,-28,24,31,-46,-4,0,26,41,9,-18,55,-18,-26,-33,10,30,17,-18,59,-12,22,2,-4,11,11,-32,-6,29,-46,13,17,-36,37,32,-6,-3,85,-26,21,-11,50,-128,-22,27,1,14,37,9,12,48,1,20,-13,-6,-15,8,-71,-37,-17,-17,-22,43,25,-4,-23,10,46,36,39,7,34,-24,17,29,37,-26,-53,-34,17,27,-15,58,-29,-29,-16,14,-55,-1,-12,-61,-31,17,21,-13,-5,39,5,2,6,49,0,-19,5,-38,-63,51,11,19,41,29,-48,66,14,-37,24,18,43,11,31,-9,1,29,-12,23,-44,-62,4,9,-42,32,57,-23,20,-33,10,12,33,-74,10,-17,75,-89,-26,-29,40,35,42,-26,31,60,-7,-14,16,-16,-39,1,-83,-45,3,-46,-1,-1,7,39,-99,29,-29,7,39,-5,-7,8,33,43,103,-10,-33,-24,67,22,-33,24,-59,28,-75,-57,-58,-61,-36,-32,-62,40,24,-41,46,22,39,13,-33,127,-31,16,49,-57,-13,28,37,43,10,-11,49,-12,-23,-62,3,56,-5,-36,39,-8,15,-44,14,-15,-1,-28,-73,3,-30,29,-3,-34,35,26,-8,-37,112,23,67,-16,-5,-102,-47,33,16,4,25,13,-20,-9,25,53,23,12,-5,25,-10,-7,48,30,10,15,-9,-15,19,-59,27,71,-28,23,68,-38,23,-4,-10,-48,-5,-67,1,59,-24,35,8,-23,73,54,-8,14,3,-51,7,-10,-28,42,-16,56,-13,-53,44,-73,48,-15,-66,-32,-47,1,11,-1,55,35,-104,127,85,-77,49,32,-38,3,12,-57,-55,-4,-25,-31,17,-48,-31,4,-68,-29,-16,-80,2,60,-100,8,127,-55,87,-14,36,-70,-54,-13,6,-47,55,9,-63,6,-51,64,-70,-26,63,-52,-64,-66,22,9,-41,38,20,-41,44,19,79,-1,17,30,32,-31,-6,-43,1,-16,-102,24,-19,10,-33,95,-40,-127,-7,52,-35,56,-45,-27,35,3,56,-12,-34,-19,-44,12,100,68,32,-20,-47,-60,-56,61,2,36,51,57,-42,47,6,86,-8,-2,62,-65,34,-42,43,7,-18,52,4,-9,34,68,19,57,18,-1,58,-31,17,-21,-23,-76,-42,42,31,-96,-7,-2,15,16,-28,-2,21,93,-16,-13,-15,20,-59,25,-44,-20,-80,22,2,37,12,33,-90,1,8,64,49,12,-32,28,21,72,63,18,-23,-40,35,25,-47,-12,-27,29,-52,-60,-70,-89,-46,-48,-65,12,26,-50,41,5,14,23,27,96,-36,-7,30,1,13,21,-15,-9,127,-19,-14,13,-62,18,-4,27,34,17,40,-3,11,23,36,-34,-46,-41,-80,-13,-80,-2,33,-47,8,6,34,-17,127,-35,53,-69,25,-89,-21,4,92,51,64,1,-23,-5,16,0,-20,-39,40,8,-71,-24,79,37,0,-2,-38,18,-24,-62,1,-13,-34,-3,40,11,43,-22,25,-58,-19,-2,15,42,-20,48,-14,-2,17,-11,-6,28,-61,-37,-1,-43,-40,28,5,35,11,-44,-10,55,-4,33,-18,-42,-44,25,20,67,28,29,-8,81,10,-6,-4,34,35,29,37,-4,12,19,36,-39,-55,-48,-93,-23,-79,-2,41,-53,0,7,30,-19,127,-29,73,-72,9,-66,-18,-15,97,58,61,-3,-28,-29,15,-1,-8,-37,48,1,-73,-8,95,31,2,-15,-45,22,-19,-63,-14,-10,-42,8,48,17,35,-31,17,-67,-21,8,15,24,-9,37,-12,-1,27,-4,15,36,-58,-24,2,-50,-45,31,10,32,12,-60,-14,54,8,42,-24,-44,-43,11,29,74,12,20,0,82,22,-23,39,58,-1,-83,15,-111,3,-49,-40,30,-3,-60,20,76,40,104,5,-18,43,-27,-92,-32,9,-88,28,44,5,-78,-47,-55,-44,-13,-39,-25,-7,34,-60,47,45,13,-63,7,-36,16,-97,2,31,30,16,48,-58,19,23,127,59,67,13,7,-17,64,43,37,-59,-39,42,-11,-55,-30,-28,-3,-30,3,-28,-73,-34,-37,-66,2,60,-44,39,11,-18,-28,104,69,20,-39,11,-27,34,-11,9,-5,115,-27,-48,22,21,-53,31,46,-69,-114,3,-80,-59,-57,-10,-1,19,-50,28,71,45,95,-31,-20,77,-44,-120,-25,35,-58,11,59,30,-128,-88,28,-35,-37,13,-44,-34,56,-27,88,39,-5,-82,42,25,-45,-66,5,31,31,52,31,-51,-3,54,114,51,43,-14,-21,13,46,47,60,-18,-56,32,53,-94,-19,-58,-22,4,4,-70,-88,-6,-42,-11,21,28,-43,19,40,-31,-16,127,-8,29,-27,8,-36,32,-13,-19,-35,123,-14,-48,34,67,-35,-14,-57,-21,-22,-26,-13,-61,34,26,-27,3,8,22,15,-13,-20,-21,6,1,-38,-8,3,-19,-39,-50,-2,18,8,14,-6,37,-12,35,-40,-31,6,-14,0,-39,-41,8,-5,16,-36,-10,33,3,-25,-2,17,-30,-15,14,-61,0,-7,-69,44,26,-17,14,52,15,42,-2,-8,-33,-16,-14,4,-31,-56,-10,-19,-44,26,31,-23,-17,-31,16,-18,-7,4,8,73,-40,32,40,6,50,-1,-38,26,29,-11,97,-63,-72,127,18,47,73,-41,57,-63,53,-13,-19,41,-22,-58,-16,64,-17,74,42,-40,52,-2,-6,-31,44,-87,36,4,30,-128,-16,-35,19,35,-16,3,18,69,-30,-7,9,7,-40,6,-90,-8,-49,16,5,41,0,40,-76,-1,7,93,37,38,20,12,16,67,71,-16,-61,-42,50,7,-41,13,-32,16,-47,-25,-51,-53,-59,-56,-82,1,34,-36,48,27,21,-15,36,126,-7,-15,8,-25,-22,25,19,31,108,-1,-49,60,-19,-58,32,21,-42,-32,-35,-34,14,-66,-56,40,26,26,60,25,103,16,-32,37,-29,10,-79,2,-114,52,-6,66,-76,117,20,-17,-128,-51,-95,38,17,-19,-26,13,34,57,-28,-13,74,75,-91,-44,10,22,47,-23,83,50,23,66,34,29,26,-26,-69,29,-70,47,4,3,-29,-69,45,-49,27,-22,20,71,67,10,87,27,-5,21,58,-4,-12,-44,-31,12,42,-107,50,-50,-22,40,34,-32,0,-84,-42,-24,-56,-43,51,-45,8,16,51,4,58,4,39,19,-8,29,-11,-29,-7,19,-47,14,40,-26,41,9,24,0,61,-43,12,-12,68,-127,-12,16,18,28,34,7,33,73,5,-6,-11,-3,-24,12,-79,-45,-10,-17,-23,37,15,6,-61,20,12,30,31,-10,11,-7,26,38,66,-35,-44,-42,39,33,-20,52,-26,-1,-48,-24,-70,-26,-26,-59,-56,33,20,-19,12,29,26,20,-25,84,-25,-9,15,-44,-56,47,16,26,47,22,-21,46,-16,-40,-1,10,74,97,2,50,80,16,-30,42,-32,29,2,-57,4,-21,49,33,-69,26,81,27,-76,33,8,-17,-35,120,61,-39,-7,42,-64,48,73,-30,12,-93,30,42,30,-20,-11,71,16,-54,6,-18,-36,1,12,37,-88,-34,-3,-21,23,-1,-33,5,-14,-59,17,13,-5,-58,87,-22,33,61,-25,5,53,23,33,48,-38,20,10,25,8,-42,52,22,-110,-11,12,15,-8,22,-24,-12,56,-4,-128,-25,1,-40,-22,-88,14,-41,-12,-5,-14,-22,-79,43,26,-24,-14,-30,20,20,-37,-20,6,-16,5,-46,-29,19,17,-69,-23,-33,47,-31,1,-18,48,-3,67,-53,-30,18,-20,8,-43,-62,2,-8,-36,-58,-7,-2,-10,-30,8,38,-57,0,23,-66,23,-12,-68,37,27,-19,49,45,-21,53,20,-8,-50,7,-43,-10,-69,-68,-28,-13,-62,9,15,-15,-4,-40,27,-6,-5,5,4,127,-46,31,58,-28,32,17,-20,51,23,-8,119,-56,-63,115,-17,21,38,-23,-4,-59,9,-9,65,-52,-28,-36,-74,-11,-13,-9,24,-22,-17,18,44,-41,70,8,39,-33,-66,-25,4,-46,69,26,-15,-1,-49,-80,0,-13,-15,-7,79,-14,2,68,69,127,33,-28,-63,10,45,-109,2,5,-71,17,33,49,9,-46,-50,-41,59,8,-19,-12,5,-26,36,2,70,-17,66,35,-68,13,43,-70,-77,45,-5,4,-41,-91,39,-2,14,43,-61,3,17,-44,-34,23,49,31,14,80,1,71,-17,27,110,27,42,-37,100,17,-8,39,-45,-25,-28,24,-27,33,61,-15,1,13,69,-9,9,-77,15,-27,-10,-28,39,-56,40,64,-43,28,37,31,-33,-76,-4,22,16,-3,-89,47,-11,25,5,13,-55,39,-68,-12,-56,36,14,13,23,45,4,53,38,-47,-38,-14,26,-28,10,-14,10,55,-49,-41,-5,-22,-57,-22,-85,-21,12,-8,52,-10,38,-7,-46,127,-13,4,1,14,-26,14,25,50,42,-14,-10,33,-65,-30,14,64,7,-5,31,-42,-4,-21,19,-44,-50,-72,-92,-5,-59,36,36,-54,8,-4,-24,-31,127,-36,93,-54,-3,-74,-40,-35,64,34,43,-10,-33,-36,-6,28,26,-30,23,-1,-60,8,73,29,22,-12,-40,31,-18,-59,-4,41,-30,39,64,2,19,-16,15,-48,-25,-13,19,14,-27,20,-19,-1,36,17,26,26,-51,-31,-6,-48,-31,23,14,39,-4,-80,33,34,35,24,-38,-51,-24,-2,35,59,30,9,-27,86,61,-61,10,28,47,-11,24,-56,16,10,-15,15,-39,-53,-7,35,-16,49,40,-18,15,-27,-10,-14,15,-85,22,-6,15,-48,-3,-63,31,30,-10,-17,10,28,-38,-12,14,-7,-14,-5,-66,7,-23,-6,14,0,-17,53,-67,2,-22,44,28,29,-2,38,8,36,60,-1,-42,-2,38,-15,-30,-12,-28,31,-55,-45,-15,-40,-56,-14,-57,-11,19,-31,48,3,13,-19,9,127,-11,12,21,-23,14,5,18,42,51,-23,21,-5,-36,-18,15,-74,-31,-24,-25,19,-70,32,-12,37,58,33,127,27,11,-35,-32,21,36,-18,-35,42,-70,-27,-109,44,94,-45,1,61,-57,-47,35,-42,18,94,-10,7,-55,-10,-53,0,16,-103,-101,-52,-39,30,84,-18,-56,92,59,-56,80,-50,-111,0,5,30,53,99,-18,7,20,16,-34,34,-41,-29,-103,-63,-92,-60,25,-1,6,77,46,-83,-4,-8,-5,102,-6,71,-81,-20,85,2,21,42,-42,-30,22,18,89,-105,-89,104,6,54,23,18,36,-14,-5,7,29,-49,-62,-71,-93,-27,-70,26,47,-54,4,-16,5,-20,127,-35,84,-70,16,-73,-45,-24,89,60,66,-23,-24,-24,12,11,23,-35,25,8,-68,-13,99,17,11,-24,-37,36,-35,-60,-23,14,-40,19,54,-2,42,-24,37,-61,-15,-10,35,30,-24,28,-29,9,26,-3,12,14,-55,-29,-3,-35,-44,15,20,44,15,-70,-1,50,20,42,-21,-61,-27,2,48,71,6,6,2,74,48,-65,61,41,-15,40,-18,-14,14,-37,-43,-11,-56,25,38,14,22,-57,8,-49,42,32,-68,-29,116,-48,9,-28,-13,-2,14,8,4,31,35,-6,-72,16,-6,-29,-28,-88,11,7,-8,-55,15,37,21,25,34,44,57,32,127,-43,-42,40,-6,-4,34,-57,-23,42,11,37,-3,-34,-47,37,19,-80,-5,76,-23,91,38,-2,35,6,-31,43,-48,3,13,-33,-46,-29,50,109,-31,41,-5,-20,28,43,26,73,-38,-68,70,-42,-14,17,14,3,-41,56,-45,6,-1,-12,19,55,7,-34,-1,-21,-40,3,-55,-12,15,42,-48,68,-29,60,-32,127,29,-71,-9,-17,-32,19,22,-50,-37,-34,45,25,8,8,-19,58,9,-16,-36,-29,-15,-20,29,3,-22,19,11,-28,4,36,-36,-15,-33,8,-36,-19,13,-8,91,-3,39,-9,4,50,63,-9,26,62,0,35,-28,-26,-7,13,24,0,-75,-29,-10,7,-73,31,19,-39,30,-26,-64,-34,54,-23,16,-53,33,47,-9,17,12,23,-12,-1,-20,16,-33,-48,14,-28,-6,24,34,-4,8,-21,-29,24,5,-3,23,-8,47,-28,-43,-3,-10,9,21,-16,44,32,10,9,62,-11,-53,-1,-20,-32,9,-90,1,-7,26,11,-34,44,-33,23,31,-6,11,-41,1,26,65,-18,-7,-31,46,7,-8,12,-49,14,-21,13,-27,-40,28,-13,-40,71,21,-16,19,24,32,12,-21,1,12,2,17,-53,-20,4,60,0,-74,-9,20,-19,49,-128,26,33,33,12,55,-31,-8,24,14,-6,-40,-65,-39,15,-76,14,51,-53,23,-13,1,-6,109,-69,47,-48,60,-128,-30,-15,61,32,69,-12,-3,41,-3,11,-9,-34,-4,0,-104,-45,29,-11,-11,7,-3,33,-60,-8,13,15,16,8,26,3,34,16,74,-28,-57,-8,47,23,-36,52,-49,-14,-47,-20,-47,-8,-63,-47,-35,0,4,-15,18,39,17,-21,-12,121,-18,17,12,-64,-51,47,24,70,35,19,13,48,1,-29,16,62,-25,-30,18,-51,-34,-31,36,-49,-49,-90,-94,5,-39,60,23,-50,29,-34,-53,-43,127,-50,87,-46,5,-81,-61,-29,66,25,50,-38,-52,-33,-4,49,41,-41,-4,17,-33,-3,60,43,40,-19,-29,35,-24,-76,-7,63,-31,55,51,4,37,-14,26,-30,-15,-24,25,34,-63,-4,-32,0,50,4,9,-14,-63,-37,6,-54,-42,15,21,46,-16,-86,68,26,35,26,-27,-53,7,-23,19,57,71,-5,-15,80,66,-52,-1,40,32,27,44,-4,7,18,32,-41,-60,-57,-92,-27,-78,7,39,-54,2,-1,26,-16,127,-34,74,-76,16,-75,-27,-16,98,58,64,-8,-25,-21,17,4,0,-37,39,8,-76,-15,94,25,4,-17,-43,26,-30,-58,-18,-5,-40,7,49,9,44,-24,29,-67,-19,-5,26,25,-16,36,-21,8,22,-6,7,27,-58,-30,-2,-44,-48,28,14,39,12,-60,-13,55,9,42,-19,-52,-44,11,36,75,5,17,3,83,30,-43,11,76,72,-14,70,-54,76,-16,-20,42,-29,-58,-42,44,-30,67,48,-49,36,24,12,-31,77,-65,64,-5,18,-127,-13,-27,21,43,-16,23,31,44,-20,-3,16,14,-13,5,-102,0,-18,15,7,48,-14,27,-60,-6,7,98,30,36,60,3,8,65,47,-53,-67,-56,37,8,-18,28,-15,9,-32,0,-43,-28,-46,-68,-78,-5,26,-13,32,32,20,-28,16,88,6,-12,-20,-33,-52,31,37,33,87,15,-84,102,11,-97,3,-21,-5,-27,-58,-29,-17,-7,-17,15,-7,18,57,13,76,38,-12,52,-15,-48,-25,8,-127,-37,-59,47,-35,110,23,-49,-25,-11,-56,-32,5,4,-32,-30,25,16,-34,2,60,37,-63,0,26,-27,-1,37,-38,25,-48,6,23,11,-68,33,-16,24,10,63,38,28,0,-47,-9,-87,0,51,-38,-47,26,-69,0,55,-9,3,10,-42,43,-40,-6,9,17,21,-12,10,40,47,96,-49,-21,-28,-3,-69,75,-105,-50,51,41,49,-16,-5,0,-13,-11,-23,-38,32,-33,-55,17,-9,32,56,33,6,18,-28,-48,16,-28,-28,24,21,22,-10,-48,-25,-30,3,-13,-17,38,20,-14,12,66,0,-64,8,-3,-10,-28,-75,19,1,25,14,-39,54,-41,60,40,10,5,-28,-15,40,59,6,-13,-36,50,-7,-17,-26,-49,18,-29,5,-20,-55,17,-11,-47,70,33,-35,34,14,19,0,1,6,18,-7,24,-38,10,-16,43,-15,-44,-26,8,-28,49,-128,52,-16,-14,19,-17,-13,-49,21,-57,45,9,-26,117,12,20,6,29,25,-11,-33,-52,44,-97,-44,-49,24,56,18,2,-35,-61,-34,-11,-25,59,57,-40,-19,24,-16,-61,-26,-20,-35,-97,-123,-20,9,55,24,-57,127,-6,-4,91,-16,-56,-4,-28,47,75,63,-45,15,51,-49,-10,-6,-69,-3,-125,-33,-55,-60,21,11,-57,92,89,-66,29,-21,23,75,-30,84,-39,-11,79,-23,18,15,18,-18,-51,-22,89,-125,-37,-31,-15,-15,41,-14,28,104,28,42,-5,50,4,13,34,-55,3,13,28,26,51,-19,77,27,-22,33,-57,5,87,-110,-52,78,38,38,48,-14,60,127,51,-20,19,30,-97,53,11,-105,26,-51,-9,16,54,-14,-99,26,-46,-2,15,-73,-43,-48,56,46,109,-37,61,-103,64,102,-20,12,-60,49,-20,-52,-110,-121,44,-50,-30,101,-28,-28,29,50,50,52,-59,-27,-34,26,38,-66,-27,19,33,-33,-13,-24,11,8,-10,-94,14,31,49,102,20,34,69,17,-27,22,-26,-9,-18,-58,-25,-20,60,9,-59,49,40,11,-6,27,47,-38,-10,50,37,-27,-22,32,-20,54,58,-23,15,-61,38,18,41,-29,-41,44,35,-78,-10,9,-14,-11,32,48,-54,-2,7,-8,63,-25,-44,12,-12,-69,-18,3,7,-39,71,11,8,20,-14,35,33,41,45,9,-44,26,24,34,-14,-27,30,20,-85,-7,24,-4,-19,-4,-68,16,59,8,-113,8,-26,7,29,-128,12,0,58,-5,52,3,79,-1,-67,101,55,45,88,35,21,-1,6,12,25,42,20,10,-75,4,-54,53,25,-54,37,36,-93,-19,-67,54,86,95,-9,-20,-26,62,-52,-4,-43,-15,-128,-49,-41,77,56,-34,-26,97,40,43,81,-20,-4,-25,-28,89,16,5,-51,-39,13,-11,34,34,12,-6,-73,7,-68,-21,33,-28,-91,76,87,-45,-6,-18,16,89,-29,28,-29,-70,26,17,-50,59,-6,-52,33,18,-75,-17,-55,-37,1,-22,-127,19,-38,9,-128,0,48,-89,22,-3,-36,-49,-41,-71,-42,-20,-21,13,-78,8,85,64,39,-41,-10,46,-34,3,-1,-54,78,-18,-86,-112,7,74,-18,-60,68,-29,31,-20,70,7,-12,-42,6,-31,111,-24,59,-84,-47,9,20,-9,-17,-107,-72,31,-5,71,-35,0,-14,31,-10,-75,57,71,66,101,21,18,113,-50,-26,42,-70,13,-50,-30,37,-68,25,15,-40,-30,8,7,-17,32,-64,35,40,-11,87,67,12,-44,-87,-56,-72,-53,-111,-4,-3,-20,22,-3,74,33,56,16,-50,43,1,-69,-100,10,-80,-40,-49,50,6,70,-12,-27,-32,-65,4,-71,-37,-3,-43,36,1,-29,-40,-2,68,-18,-71,-5,21,-31,29,32,-10,31,19,-27,31,12,-95,33,-8,-17,8,116,17,54,-9,-39,-51,-57,-28,-11,-36,-38,8,-54,-4,52,36,-3,23,-55,18,-30,-32,16,70,32,-24,8,59,13,106,-35,-47,-16,12,-46,109,-128,-29,108,-57,-10,36,6,-3,23,48,3,55,-47,-9,33,-103,-20,-19,-29,-17,-16,-19,13,84,-40,47,35,21,-37,-72,46,33,5,84,37,-7,19,-54,-74,25,-26,-30,5,77,17,26,58,85,127,28,-23,-77,-11,40,-120,-18,-28,-98,4,25,40,32,-53,-74,-49,52,20,-61,23,24,-15,84,20,91,1,65,57,-43,12,56,-102,-88,69,-11,-12,-10,-63,-6,-48,9,41,-61,54,6,-20,-31,28,41,11,-21,80,-24,82,-3,-53,-76,-70,-18,-20,-67,-11,11,-7,73,42,57,49,21,-28,-59,12,35,-5,-53,1,-17,7,-63,53,21,-42,-11,55,-49,-62,23,-20,-44,32,-5,53,-62,-11,-24,0,41,-63,-64,21,-23,25,54,-28,22,12,98,-18,21,-14,-54,-1,-1,-3,-24,82,-1,13,-32,23,-40,17,-6,-54,-10,-6,-48,-7,10,-6,41,6,17,-38,-34,1,-40,49,66,-8,-29,-33,20,25,24,18,-72,-31,71,28,3,-29,-21,127,41,68,-42,-79,-9,-114,-51,-57,-22,-13,-43,-99,-24,49,27,127,14,-31,50,-66,-115,-38,41,-97,60,16,1,-70,-81,-59,23,0,4,-55,-41,-1,-53,61,75,-21,-63,23,-15,3,-31,18,54,-11,-7,85,-65,-19,-6,126,22,81,10,12,7,35,59,33,-46,-32,44,0,-88,-49,-59,18,-7,-9,-7,-89,-62,-31,-45,-26,24,-37,60,38,-24,-77,127,53,36,9,5,-42,62,-36,19,16,104,-36,-4,20,55,-67,-5,-62,-72,-20,-27,14,-78,18,21,-19,53,35,44,11,0,-58,-48,4,6,-3,-31,15,-15,25,-52,19,20,-1,3,52,-26,-49,37,-19,-39,4,5,37,-54,-20,5,-8,42,-58,-29,11,-22,-5,41,-33,27,14,67,-65,8,-26,-53,-4,-3,-32,-27,64,11,34,-32,9,-22,16,-8,-50,-7,-4,-21,24,16,12,66,3,5,-17,-35,-7,-30,47,20,-18,-33,-11,25,7,16,17,-53,-11,10,24,40,-48,-25,127};
